time,vel_sp,vel,theta,acc_sp,acc
0,0,0,-1,-0.0765931435150453,0
0.02,0,-0.00116299738740164,-0.998861024451161,-0.0765931435150453,-0.0647439611973223
0.04,0,-0.00245875157512895,-0.99531840839595,-0.0678383431114313,-0.0647374248663298
0.06,0,-0.00374754867529325,-0.989368560760953,-0.0582864268756798,-0.0638845307687784
0.08,0,-0.00500939212999,-0.981023331017539,-0.0582864268756798,-0.0619059452571451
0.1,0,-0.00622170467450496,-0.970309860069844,-0.0484392573443315,-0.058881619920218
0.12,0,-0.00736671425580352,-0.95727003381866,-0.0385094864118581,-0.0551702738588227
0.14,0,-0.008435151436598,-0.941956949749178,-0.0385094864118581,-0.0512801455033841
0.16,0,-0.00942482408836526,-0.924430351398122,-0.0286344959945962,-0.047280719962091
0.18,0,-0.0103366713959754,-0.904754716307552,-0.0188718015597779,-0.0436203298656823
0.2,0,-0.0111776894890781,-0.882995928508615,-0.0188718015597779,-0.0401336072594002
0.22,0,-0.0119515648261801,-0.859221283274274,-0.00922279673118044,-0.0370507780181717
0.24,0,-0.0126675322866712,-0.833498228280632,0.000324062365770225,-0.0342601719037091
0.26,0,-0.0133286965541408,-0.805894536864027,0.000324062365770225,-0.0316742049140389
0.28,0,-0.0139414414497049,-0.776479328981635,0.00977760853929106,-0.0293655490483977
0.3,0,-0.0145080190525669,-0.745322557765509,0.0191397724077142,-0.027114454049324
0.32,0,-0.0150319859081276,-0.712496323762525,0.0191397724077142,-0.0250475963228324
0.34,0,-0.0155125030028533,-0.678074606118123,0.0283954865163133,-0.0227877479263058
0.36,0,-0.0159494131834842,-0.642135385010787,0.0375040888051881,-0.0206788552844511
0.38,0,-0.0163417222237834,-0.604759035781377,0.0375040888051881,-0.0182809087924945
0.4,0,-0.0166865951499322,-0.566030447691196,0.0464210515343998,-0.0159905527065218
0.42,0,-0.0169841413477311,-0.526037114931136,0.0550948434531967,-0.0134593636582609
0.44,0,-0.0172307605174029,-0.484870460527057,0.0550948434531967,-0.0109827962523159
0.46,0,-0.0174271477070259,-0.44262452602007,0.0634693456292073,-0.00833144512130609
0.48,0,-0.0175698083532284,-0.399396566397738,0.0714944550758133,-0.00571637981705845
0.5,0,-0.0176604118540329,-0.355286064785162,0.0714944550758133,-0.00300644195109735
0.52,0,-0.0176952901868276,-0.310394902235495,0.0791258671657185,-0.000252106481996902
0.54,0,-0.0176763193877712,-0.264827208377566,0.0863141748375374,0.00246943421578243
0.56,0,-0.0176014072258871,-0.218688393366333,0.0863141748375374,0.00526086649100591
0.58,0,-0.0174724328800479,-0.172085598380052,0.0930189301000215,0.0079293509481634
0.6,0,-0.0172887566528429,-0.125126287631782,0.0992087712915154,0.0106965284130143
0.62,0,-0.0170512029890553,-0.0779193167853302,0.0992087712915154,0.0133229696607366
0.64,0,-0.0167604440811459,-0.0305734612140944,0.104849062994546,0.0160091748828607
0.66,0,-0.0164173143703416,0.0168019099114439,0.109910835366592,0.0185481947864143
0.68,0,-0.0160229748209221,0.0640979700095104,0.109910835366592,0.0211388909849301
0.7,0,-0.015578132761138,0.11120578059628,0.114369979995574,0.0235580306260251
0.72,0,-0.0150852331957934,0.158017588319167,0.118207109803021,0.025981241496999
0.74,0,-0.0145447401265609,0.204426289618919,0.118207109803021,0.0282501191814012
0.76,0,-0.0139600042924427,0.250326343815673,0.12140445337704,0.0304626694558994
0.78,0,-0.0133311164724908,0.295613612366257,0.12395111802708,0.0325964253300011
0.8,0,-0.0126612246099206,0.340185468354429,0.12395111802708,0.0346067635768895
0.82,0,-0.0119509235191556,0.383941369546749,0.125837371572348,0.0365818667118334
0.84,0,-0.0112032379570783,0.426782527717683,0.127054105865956,0.0383628660121024
0.86,0,-0.010419709561445,0.468613016173015,0.127054105865956,0.0401399513882159
0.88,0,-0.00960245791268375,0.509338935100862,0.127599532040906,0.0417385400801363
0.9,0,-0.00875306591162505,0.548869372701468,0.127472103352235,0.0433425268462543
0.92,0,-0.00787335715511975,0.587115698913199,0.127472103352235,0.0447416976742723
0.94,0,-0.00696596628476518,0.623992792831405,0.126671089298586,0.0461354248469538
0.96,0,-0.00603200270125354,0.659418292713561,0.125200186874699,0.0473424466989249
0.98,0,-0.00507484540406183,0.693313541990248,0.125200186874699,0.0484949049007718
1,0,-0.00409508504575799,0.725603210654888,0.123069408913912,0.0495495481641961
1.02,0,-0.00309004883470396,0.756215108760949,0.120270647486517,0.0528599105736168
1.04,0,-0.00186262187065245,0.785043010735286,0.120270647486517,0.0744432166062489
1.06,0,-0.000180136210527824,0.811841314940606,0.115582190373189,0.0948835016342758
1.08,0,0.00194594872000765,0.836335011894618,0.10770346532016,0.122215147772679
1.1,0,0.00461395164768767,0.858213418846734,0.10770346532016,0.144327866014509
1.12,2,0.00767710268311138,0.87719476621861,3.74478079486817,0.165771991039596
1.14,2,0.0130664558852888,0.89278715712911,3.78643551977388,0.489921304058227
1.16,2,0.0300717812700175,0.901691276350419,3.78643551977388,1.15218312492981
1.18,2,0.0598532264641218,0.897580777744531,3.76721715647036,1.77876492610258
1.2,2,0.105073534954882,0.873762035739182,3.66423102729623,2.59183567328023
1.22,2,0.164016892348812,0.822453444709564,3.66423102729623,3.15896489418939
1.24,2,0.235297366678278,0.737363832549919,3.47426235605207,3.82296772199366
1.26,2,0.316919671342188,0.61227805739266,3.20761121439586,4.16838485886994
1.28,2,0.405403972765325,0.443193352975691,3.20761121439586,4.55888112145609
1.3,2,0.499659984409075,0.226752713414354,2.88785571080669,4.65441632723276
1.32,2,0.595107638352149,-0.0382709499191746,2.53731516399389,4.7541534564118
1.34,2,0.691723705358988,-0.352225637723955,2.53731516399389,4.64632248963066
1.36,2,0.784907233607936,-0.713872929566519,2.17374778560884,4.49304463096023
1.38,2,0.875196321167734,-1.12100431808362,1.81802009506286,4.24848110447015
1.4,2,0.958707416252014,-1.5705627714666,1.81802009506286,3.91269049997973
1.42,2,1.03647274258738,-2.05851334179456,1.48754260184372,3.5968310014057
1.44,2,1.10569922085184,-2.58070668080728,1.19002757076066,3.15387817951445
1.46,2,1.16749918483088,-3.13207536219495,1.19002757076066,2.82781013665353
1.48,2,1.22067344782419,-3.70804783005087,0.932336632737577,2.34826999810136
1.5,2,1.26584334609214,-4.30324292981724,0.720360695997823,2.04736629600234
1.52,2,1.30338527470673,-4.91315000389647,0.720360695997823,1.59568471876756
1.54,2,1.3332276953985,-5.53263701767934,0.551423917732511,1.33271228984855
1.56,2,1.35701476953544,-6.15753542571877,0.421554092430407,0.951681398163318
1.58,2,1.37391512698797,-6.78332481787875,0.421554092430407,0.728875929307111
1.6,2,1.38642859839206,-7.40630654251367,0.330235323678488,0.439873486156482
1.62,2,1.39317693093502,-8.02274283855515,0.272357939886381,0.249262677755346
1.64,2,1.39696136790461,-8.62942175398386,0.272357939886381,0.0594292337872215
1.66,2,1.39626215036548,-9.22342576902884,0.240885505075462,-0.107500784392398
1.68,2,1.39366157059073,-9.80200577447309,0.234030740567345,-0.206144155296438
1.7,2,1.38789849584598,-10.3630024441457,0.234030740567345,-0.353047413886171
1.72,2,1.38091316320289,-10.9040993542055,0.248716621518292,-0.378464239929323
1.74,2,1.37204882952078,-11.4237724309859,0.278577522769606,-0.503539015805853
1.76,2,1.36233962773466,-11.9201229822739,0.278577522769606,-0.478138310560794
1.78,2,1.35192306385861,-12.3921197877929,0.321743169052109,-0.575388717945902
1.8,2,1.34084491661101,-12.8382809078345,0.377567534577514,-0.52244068389565
1.82,2,1.33004143112338,-13.2579260396202,0.377567534577514,-0.58515306819054
1.84,2,1.31869494525868,-13.6499877612962,0.441354924952752,-0.524575956653642
1.86,2,1.30835616496046,-14.0140183262504,0.510890793322019,-0.546222742932169
1.88,2,1.29763758097412,-14.3493640038553,0.510890793322019,-0.493694122513531
1.9,2,1.28838690516874,-14.6557248448706,0.586955027645088,-0.471440945110228
1.92,2,1.27900699550558,-14.9328381653485,0.666643038381888,-0.434693437657938
1.94,2,1.2712971261975,-15.180503901903,0.666643038381888,-0.372253798693872
1.96,2,1.26382705320124,-15.3988050717312,0.747213095556153,-0.350989224849756
1.98,2,1.25799800049134,-15.5876339395251,0.829774407618014,-0.256167132010228
2,2,1.25286857123864,-15.7473611534472,0.829774407618014,-0.246467592220249
2.02,2,1.24918948964424,-15.8779849255113,0.913084555256148,-0.130544049394244
2.04,2,1.24669171260352,-15.9800863134728,0.994128544380498,-0.122917457753776
2.06,2,1.24539343976258,-16.0538015154652,0.994128544380498,-0.000872653660095791
2.08,2,1.24571079117655,-16.0998410351659,1.07359775636876,0.015731103870917
2.1,2,1.24697525046796,-16.1185138529565,1.15165681874051,0.13057057697654
2.12,2,1.25018379560897,-16.1105913892823,1.15165681874051,0.163861110725241
2.14,2,1.25415871641081,-16.0765764050411,1.22552603277581,0.261983930478312
2.16,2,1.26024617301604,-16.0172493332537,1.29512076840287,0.317638177873847
2.18,2,1.26704677708026,-15.9333133036512,1.29512076840287,0.392054370963941
2.2,2,1.27593993763776,-15.8255253400744,1.36157622313622,0.471306947427179
2.22,2,1.28561237015835,-15.6947739347034,1.42284036869645,0.521424992490821
2.24,2,1.29720138018852,-15.5417894768356,1.42284036869645,0.619298582640771
2.26,2,1.30973506034344,-15.3676071981803,1.47801651335133,0.65004940149667
2.28,2,1.32388551581302,-15.1729463549485,1.52867338615639,0.758370999401158
2.3,2,1.33920675731624,-14.9589393557792,1.52867338615639,0.776580197131226
2.32,2,1.35577310779908,-14.7263200912743,1.57378895982452,0.885374523404339
2.34,2,1.37373233314238,-14.4762597886679,1.61188527532577,0.900492385750428
2.36,2,1.3925810650307,-14.2095421977185,1.61188527532577,0.998704563894884
2.38,2,1.41297458678536,-13.9273207615147,1.64441767991376,1.01966070947279
2.4,2,1.43396123438123,-13.6304573133138,1.67146300644527,1.09843206430136
2.42,2,1.45653680476233,-13.3200439670514,1.67146300644527,1.13078828437565
2.44,2,1.47950984196058,-12.9970306569753,1.69134337735065,1.18534163963545
2.46,2,1.50398635408127,-12.6624220598807,1.70501854803054,1.23140916317475
2.48,2,1.52878104255111,-12.3172538687053,1.70501854803054,1.2603962622656
2.5,2,1.55485702809898,-11.9624357994087,1.71349704591146,1.31845882391641
2.52,2,1.5812797505909,-11.5990656719762,1.71533616328024,1.32519623624166
2.54,2,1.60866634342805,-11.2279693268542,1.71533616328024,1.38983021373982
2.56,2,1.63649567296687,-10.850270468012,1.71080312573394,1.38085344980106
2.58,2,1.66491621411658,-10.4667364326984,1.70147396613088,1.44424285854878
2.6,2,1.69389515242644,-10.0784715575327,1.70147396613088,1.42774032624683
2.62,2,1.72309665811338,-9.68621472095055,1.68649375944318,1.4815360265621
2.64,2,1.75294559904491,-9.29100469344962,1.66546687507128,1.46550661883198
2.66,2,1.78269933809443,-8.89357859675642,1.66546687507128,1.50267409779993
2.68,2,1.81311391705926,-8.49487324762239,1.6401072975854,1.4930145806776
2.7,2,1.84320260234712,-8.09564196323732,1.61035070508605,1.50884294153647
2.72,2,1.87386645682418,-7.6966943675385,1.61035070508605,1.50917223317708
2.74,2,1.90408837842608,-7.2988042146095,1.57537154720072,1.50235105802423
2.76,2,1.93470195471018,-6.90264759846758,1.53661795591077,1.51239370006759
2.78,2,1.96485216684397,-6.50900680998178,1.53661795591077,1.48561131481484
2.8,2,1.99513318043571,-6.11843476022575,1.49479586668625,1.50146680014582
2.82,2,2.02500796764823,-5.73169488176909,1.44895681582,1.45999354520371
2.84,2,2.0547011913016,-5.34924016420975,1.44895681582,1.4767587753251
2.86,2,2.0840875931868,-4.97178694546474,1.4000153416219,1.42711278038755
2.88,2,2.11298007055362,-4.59971786572166,1.34924141196305,1.43797105604987
2.9,2,2.14165184628314,-4.23366552837856,1.34924141196305,1.38795938245267
2.92,2,2.16956825072349,-3.87397307229581,1.29589324994217,1.38665540293788
2.94,2,2.19730928292305,-3.5211618369067,1.24023193496701,1.34220086117693
2.96,2,2.22410566208753,-3.17555933031709,1.24023193496701,1.32543966083806
2.98,2,2.25070760469208,-2.83756039706942,1.183767123493,1.28957736019222
3,2,2.2762700401001,-2.50748782817373,1.12619069699118,1.25581601418034
3.02,2,2.30153606806163,-2.18560654494901,1.12619069699118,1.23026569753489
3.04,2,2.32577144423914,-1.87223629445971,1.06718901611129,1.18059605159785
3.06,2,2.34954431856685,-1.56752363512621,1.00816653028028,1.16319167760567
3.08,2,2.3723616497145,-1.27177246053606,1.00816653028028,1.1024714810439
3.1,2,2.39451498133513,-0.985035307488429,0.949340748784186,1.08851228920523
3.12,2,2.41583720017859,-0.707578334770387,0.89003485029297,1.02245567854346
3.14,2,2.43628515387214,-0.439391289724889,0.89003485029297,1.00776025531035
3.16,2,2.45603587406557,-0.180682126177101,0.831258795564358,0.941869914953268
3.18,2,2.47473583253083,0.0685927747472929,0.773693251745835,0.921235367499105
3.2,2,2.49283919461062,0.308304632387638,0.773693251745835,0.861657650326102
3.22,2,2.50977823421319,0.538503786236411,0.716572565537916,0.830893912339996
3.24,2,2.52617645713582,0.759153187228973,0.660355008357062,0.781223519518835
3.26,2,2.54136931225339,0.970292096213514,0.660355008357062,0.73944964899292
3.28,2,2.55601238513475,1.17197576608115,0.606012227457858,0.700255297131432
3.3,2,2.56949166038113,1.36422969655646,0.552940782964767,0.648033125695007
3.32,2,2.58235038264808,1.54719148465088,0.552940782964767,0.619050399637952
3.34,2,2.59415695599347,1.72087664235376,0.501047780318061,0.558842539927812
3.36,2,2.60523605846341,1.88548573509493,0.451351029081025,0.536823038552091
3.38,2,2.61540912961293,2.04103856676455,0.451351029081025,0.473713180878829
3.4,2,2.62473642015305,2.18777240703059,0.403575463487887,0.453931584039099
3.42,2,2.63331988690941,2.32573020157014,0.357198757797439,0.392811401832168
3.44,2,2.6409507797098,2.45515882163711,0.357198757797439,0.37163327517467
3.46,2,2.64798024097511,2.57614049510707,0.313051398693467,0.316412818409038
3.48,2,2.65399480814406,2.68891083046287,0.271251494967297,0.290176306707276
3.5,2,2.65950308626083,2.79360360968037,0.271251494967297,0.244764072022935
3.52,2,2.66399351163447,2.89042679985838,0.231060811966947,0.211105062915477
3.54,2,2.6680240046579,2.97956990438762,0.192956550629248,0.176726892149714
3.56,2,2.67109133200727,3.06120721523191,0.192956550629248,0.136161963519692
3.58,2,2.67369008690633,3.13557811247323,0.157382791040263,0.111647455957407
3.6,2,2.67543663528389,3.20282871367148,0.123613185786913,0.0658570021277381
3.62,2,2.67666175078199,3.26323500366815,0.123613185786913,0.0494224152742322
3.64,2,2.67718192426764,3.31692498737686,0.0917072369017595,0.00122005399482877
3.66,2,2.67711002130482,3.36419306806946,0.0622959766150192,-0.0107860616656477
3.68,2,2.67648688263824,3.40516543925474,0.0622959766150192,-0.0570863725120629
3.7,2,2.67520466161593,3.44013425022665,0.0348508248345404,-0.0688067270141838
3.72,2,2.6735132414643,3.46924081253723,0.00905996866621039,-0.109660505080836
3.74,2,2.67111897935949,3.49275676497499,0.00905996866621039,-0.123908527206932
3.76,2,2.6684245999537,3.5108495122817,-0.0144457084898043,-0.156827458110064
3.78,2,2.66502657929896,3.52375808122386,-0.0358848750380834,-0.175865977160466
3.8,2,2.66138742714168,3.53168301224862,-0.0358848750380834,-0.199195410555673
3.82,2,2.65709211300499,3.53482493757885,-0.0558254206791988,-0.223792634039686
3.84,2,2.6525699463522,3.53341637707547,-0.0737974705310331,-0.237819278325317
3.86,2,2.64748160930058,3.52762181464069,-0.0737974705310331,-0.266681299046599
3.88,2,2.64214072162606,3.51769704302959,-0.0897058354876025,-0.273421500149681
3.9,2,2.6363559593498,3.50377997308208,-0.104209451724726,-0.304303682894657
3.92,2,2.63026792953886,3.48613544621724,-0.104209451724726,-0.306346773654339
3.94,2,2.6238696655981,3.46488806175839,-0.117111055194008,-0.336461272885254
3.96,2,2.61711461254341,3.44029693307328,-0.128070983120624,-0.337071618020403
3.98,2,2.61017274660464,3.41248727247932,-0.128070983120624,-0.363203079002233
4,2,2.60283687806376,3.38169718090782,-0.137668336744453,-0.365382570470183
4.02,2,2.59541341125749,3.34806447173225,-0.14600997869032,-0.385129032562818
4.04,2,2.58758717963263,3.31179480901822,-0.14600997869032,-0.390851202652927
4.06,2,2.57973402758277,3.27304590092506,-0.152643350902536,-0.403041371306141
4.08,2,2.5715061212611,3.23198709938308,-0.157941007367022,-0.413250381354629
4.1,2,2.56326946829829,3.18879752996567,-0.157941007367022,-0.417733182622174
4.12,2,2.55472333689086,3.14361054148503,-0.162257104788931,-0.431969891062001
4.14,2,2.54615205188252,3.09662166944775,-0.16516593861857,-0.429982475705442
4.16,2,2.53736371573879,3.04793526239093,-0.16516593861857,-0.446588423497405
4.18,2,2.52850905583846,2.9977531842636,-0.166786933791905,-0.440435411598832
4.2,2,2.51954190601692,2.94616236833834,-0.167616991301651,-0.457111747663363
4.22,2,2.51045958090318,2.89335898763036,-0.167616991301651,-0.44936088376498
4.24,2,2.50136540421371,2.83942397267371,-0.16737975887541,-0.463684294527303
4.26,2,2.49211512295747,2.78453611983949,-0.165947711493321,-0.456867049364408
4.28,2,2.48293546007426,2.72878159687642,-0.165947711493321,-0.466679846510945
4.3,2,2.47358090098658,2.67231176314115,-0.163837520569104,-0.462695975582514
4.32,2,2.46435045721672,2.6152248961028,-0.160992570091216,-0.466609153635158
4.34,2,2.45495593660094,2.55763932573393,-0.160992570091216,-0.46655474677504
4.36,2,2.44570268413712,2.49966877976138,-0.157121479794173,-0.464381105155272
4.38,2,2.4363256613118,2.44139953577127,-0.152634602862671,-0.468046765266382
4.4,2,2.42707797527662,2.38295739592104,-0.152634602862671,-0.460558515236944
4.42,2,2.41777134728733,2.32440084505909,-0.147695183903688,-0.466871951328205
4.44,2,2.40855816857966,2.26586157280274,-0.14195592574504,-0.455703227205034
4.46,2,2.39936444994334,2.20737918947584,-0.14195592574504,-0.463019006765857
4.48,2,2.39021719905723,2.14908235673905,-0.135643711298991,-0.450237836851304
4.5,2,2.38116863085892,2.09100194905474,-0.129086508111782,-0.456386365646397
4.52,2,2.37212466013356,2.03325276683875,-0.129086508111782,-0.444217012538529
4.54,2,2.3632457876032,1.97586637506313,-0.121991821795396,-0.447323238243098
4.56,2,2.35434308700741,1.91893585542051,-0.114383559552466,-0.437562603183708
4.58,2,2.34564953618266,1.86250135456163,-0.114383559552466,-0.436399805736241
4.6,2,2.33692677782859,1.80662908022534,-0.106665478616794,-0.430077496754125
4.62,2,2.328426662768,1.75137160736272,-0.0986680818492089,-0.424249021511031
4.64,2,2.31991796405151,1.6967682179971,-0.0986680818492089,-0.421553321235735
4.66,2,2.31161916098048,1.6428830288813,-0.0902396263518321,-0.411417804208304
4.68,2,2.30335327005542,1.58973158930709,-0.0817542240239236,-0.411597177695995
4.7,2,2.29526480722887,1.53738489692372,-0.0817542240239236,-0.398455626142281
4.72,2,2.2872651635296,1.48584147211257,-0.0732166310553974,-0.400032639817762
4.74,2,2.2793984371597,1.43517164578705,-0.0643716832915422,-0.385575126410622
4.76,2,2.27167917488564,1.38536569291445,-0.0643716832915422,-0.387081942169048
4.78,2,2.264047319516,1.33648622194735,-0.0554835729812404,-0.373030899674765
4.8,2,2.25661334926172,1.28852364425412,-0.0467122017889132,-0.372736121488006
4.82,2,2.24923435234511,1.24152482928759,-0.0467122017889132,-0.360743240581972
4.84,2,2.2420863601407,1.19548716427605,-0.0377841275589559,-0.357419434756636
4.86,2,2.23497710352683,1.15043762595594,-0.0288121062600571,-0.348477543086267
4.88,2,2.2281107828519,1.10638465365486,-0.0288121062600571,-0.341641692279061
4.9,2,2.22128917410187,1.06333366852013,-0.0200620259152978,-0.335895572400462
4.92,2,2.21469810797985,1.02130385127369,-0.0113198395019858,-0.325845536573076
4.94,2,2.20817539797587,0.980282241871765,-0.0113198395019858,-0.323004250923904
4.96,2,2.201853658887,0.940296442019863,-0.00253901843327363,-0.310368864539389
4.98,2,2.19563769032546,0.901319219117674,0.00598422952458425,-0.309405122320209
5,2,2.18958218292106,0.863381207397324,0.00598422952458425,-0.295640094455223
5.02,2,2.18367474823246,0.826448202574279,0.0143502414056481,-0.295077349244199
5.04,2,2.17788516975777,0.790547016443237,0.0227220443263529,-0.281619040623425
5.06,2,2.17228223846592,0.755643508868705,0.0227220443263529,-0.280257351299462
5.08,2,2.16676106015336,0.721755158643858,0.0308498360517786,-0.268306381160249
5.1,2,2.16145361742098,0.688853568739035,0.038698321905858,-0.264973404616967
5.12,2,2.15620589256998,0.656942179898908,0.038698321905858,-0.255689545191709
5.14,2,2.15117987029339,0.626003246556646,0.0464959703459844,-0.249721434659577
5.16,2,2.14620842709812,0.596024629645762,0.0540904140992031,-0.243390679078485
5.18,2,2.14144996464583,0.566999677434616,0.0540904140992031,-0.234843776619087
5.2,2,2.13675837762914,0.538901493086471,0.0613396371800605,-0.231115126990731
5.22,2,2.13225451435062,0.511732317994403,0.0684573598664178,-0.220547292138539
5.24,2,2.12784228833966,0.485454354066874,0.0684573598664178,-0.218832265553759
5.26,2,2.12358123456795,0.460075440792604,0.0754147389110274,-0.207153988335969
5.28,2,2.11944223833755,0.435552245883067,0.082009497615854,-0.206332844249899
5.3,2,2.11541571962251,0.411892769289099,0.082009497615854,-0.194838750834546
5.32,2,2.11153993385904,0.389054281591498,0.0883945141456902,-0.193688042150243
5.34,2,2.10774170557492,0.367039755669823,0.0946529026865619,-0.18347075615595
5.36,2,2.10411530905087,0.345812268110493,0.0946529026865619,-0.181119115944608
5.38,2,2.10054169491809,0.325366029440275,0.100580693169325,-0.17294087543435
5.4,2,2.09714797894885,0.305673297549108,0.106233629269095,-0.168709842117978
5.42,2,2.09379767766177,0.286717085323124,0.106233629269095,-0.163026863608068
5.44,2,2.09062073059877,0.26847999112025,0.111768344272998,-0.156752741559691
5.46,2,2.08748980258107,0.250934377090926,0.117030780221477,-0.153531784662169
5.48,2,2.08451300825683,0.234072745238586,0.117030780221477,-0.145528536539441
5.5,2,2.08159796227485,0.21785870270363,0.121975231875513,-0.144184017726531
5.52,2,2.07880640229948,0.202291543149567,0.12679113568481,-0.135215688108744
5.54,2,2.07609915795664,0.187330708971023,0.12679113568481,-0.134969188917563
5.56,2,2.07348124459809,0.17297820602211,0.131404049345704,-0.125874440007056
5.58,2,2.07097157535293,0.159193561292947,0.135693718334579,-0.125677265060538
5.6,2,2.06852090269343,0.145976440961171,0.135693718334579,-0.117469320088126
5.62,2,2.06619670965791,0.133290961243203,0.139821171482148,-0.116453191321744
5.64,2,2.06390711529148,0.121131156720729,0.14380444215662,-0.109911440170932
5.66,2,2.06175310313324,0.109469352333742,0.14380444215662,-0.107460031607672
5.68,2,2.05962159115898,0.0982913487000076,0.147487673388994,-0.102961604142076
5.7,2,2.05762153659858,0.0875790439554001,0.150975080676237,-0.0989195503870937
5.72,2,2.05564312487291,0.077310386790633,0.150975080676237,-0.0965523256415989
5.74,2,2.05378104798762,0.0674767255537163,0.154364072446412,-0.0910088252253372
5.76,2,2.05195059603265,0.0580492588354172,0.157510815302526,-0.0903925191277196
5.78,2,2.05021339331284,0.0490264613023655,0.157510815302526,-0.0838646257526241
5.8,2,2.04852551589226,0.0403754743674319,0.160437626670294,-0.084268721788472
5.82,2,2.04690346939367,0.0320981000976232,0.163283535570234,-0.0774883043770446
5.84,2,2.04535004737307,0.0241612347086781,0.163283535570234,-0.0782280508961434
5.86,2,2.04383460588102,0.0165668934813415,0.165951778166297,-0.0719649724610103
5.88,2,2.04240448076274,0.00928560019230891,0.168390853331801,-0.072212278602262
5.9,2,2.04099069983221,0.00231579957671668,0.168390853331801,-0.0671901257685349
5.92,2,2.03967189329335,-0.00436533231791689,0.170749343013768,-0.06634874962405
5.94,2,2.03835633964181,-0.0107651575944772,0.172996310381925,-0.0629853893567739
5.96,2,2.03713621357962,-0.0168982775508106,0.172996310381925,-0.0607410596110991
5.98,2,2.03591753726191,-0.0227790835865664,0.175026852410246,-0.0590925507590951
6,2,2.03478497161623,-0.0284142585829804,0.176956218618768,-0.0555295522946173
6.02,2,2.03366076531181,-0.0338240692722799,0.176956218618768,-0.0554274877302899
6.04,2,2.03260469988922,-0.039008441860918,0.178823354916162,-0.05088482174566
6.06,2,2.0315706863621,-0.0439913771858031,0.180508241455312,-0.0518130637400298
6.08,2,2.03058284012896,-0.0487687844995171,0.180508241455312,-0.0468963099872657
6.1,2,2.02963342346854,-0.0533653144812814,0.182072120552482,-0.0482030129948253
6.12,2,2.02870740636381,-0.0577759568306205,0.183607195493315,-0.043517794538066
6.14,2,2.02783587389883,-0.0620232465022584,0.183607195493315,-0.0445203783734691
6.16,2,2.02696888225899,-0.0661045772321652,0.185007603007224,-0.0407173397199249
6.18,2,2.02616603353018,-0.0700372256727448,0.186273454156667,-0.0409181940663822
6.2,2,2.02535563252204,-0.0738228353142352,0.186273454156667,-0.0383678457345376
6.22,2,2.02461274659511,-0.0774722725189231,0.187520048501729,-0.037378976251661
6.24,2,2.02385986400846,-0.0809931241590702,0.18868239863744,-0.0362186100160983
6.26,2,2.02316892073864,-0.0843896298962699,0.18868239863744,-0.0341504116878239
6.28,2,2.02247126268659,-0.0876739401805725,0.189707540734642,-0.0343127762619769
6.3,2,2.02182265667823,-0.0908439775651821,0.190706824587347,-0.0313585535888513
6.32,2,2.02117724791473,-0.0939152211049245,0.190706824587347,-0.0324714206344771
6.34,2,2.02056448829623,-0.0968816212827353,0.191677807314523,-0.0289732871919343
6.36,2,2.01996906382521,-0.099760326425624,0.192530612145506,-0.0305411055407066
6.38,2,2.01938844544714,-0.10254392812654,0.192530612145506,-0.0270023714070427
6.4,2,2.01884064628532,-0.105249004610894,0.193337818510783,-0.0284038438848721
6.42,2,2.01829181552384,-0.107869841715446,0.194142689345127,-0.0254025810093814
6.44,2,2.01778666700849,-0.11041968844681,0.194142689345127,-0.0262050074874808
6.46,2,2.01726880062003,-0.11289613047512,0.194851463887258,-0.0241888529819086
6.48,2,2.01679878898212,-0.115306939556592,0.195496210443036,-0.0240955538176284
6.5,2,2.01631098039442,-0.117653923723354,0.195496210443036,-0.0232700246837206
6.52,2,2.01586850578979,-0.11993879177293,0.196160429440826,-0.0221516647357672
6.54,2,2.01541116896303,-0.122167959238557,0.196771282073574,-0.0224213987654622
6.56,2,2.01499076213878,-0.124338100308562,0.196771282073574,-0.0204252607423865
6.58,2,2.0145649818114,-0.12645939757784,0.19730951360435,-0.0214463377048503
6.6,2,2.01416437277168,-0.128525658519546,0.197859086025493,-0.0189153723443205
6.62,2,2.01376992503083,-0.130548964975111,0.197859086025493,-0.0203920876739975
6.64,2,2.01338639921614,-0.132521549495552,0.198387824870216,-0.0176968358098372
6.66,2,2.01302226004691,-0.134455632245603,0.198835933625587,-0.0191148160204993
6.68,2,2.01265601529441,-0.136344541319079,0.198835933625587,-0.0167672981729632
6.7,2,2.01231888740853,-0.138198113763469,0.199278756638281,-0.0177670934370196
6.72,2,2.01196954548602,-0.14001202948321,0.199726225615005,-0.0161062664437218
6.74,2,2.01165496761734,-0.141792313246049,0.199726225615005,-0.0163722761152359
6.76,2,2.0113237292989,-0.143538372107185,0.200105618637389,-0.0156216141290796
6.78,2,2.0110266514854,-0.145251534803528,0.200465035947623,-0.0151016687961658
6.8,2,2.01071348819999,-0.146934638923835,0.200465035947623,-0.0152631510507548
6.82,2,2.01042866030931,-0.148584647621151,0.200850704551383,-0.013974693485287
6.84,2,2.01013396932904,-0.150207714315492,0.201195229981923,-0.0148489753253952
6.86,2,2.00985891213131,-0.151797804653348,0.201195229981923,-0.0130266187645687
6.88,2,2.00958298128597,-0.153363091198147,0.201505820919523,-0.014349192656225
6.9,2,2.00931535456857,-0.154895853977737,0.201847350316442,-0.0123249640675551
6.92,2,2.00905754688802,-0.156404581088119,0.201847350316442,-0.013709290138349
6.94,2,2.00879704906784,-0.157881856273365,0.202172482422989,-0.0118254483670319
6.96,2,2.00855608813536,-0.159335029946046,0.202452751156548,-0.0129003445699552
6.98,2,2.00830400459068,-0.16075872210644,0.202452751156548,-0.0114828862403772
7,2,2.00807761476624,-0.162157742391876,0.202753350824743,-0.0119947022780979
7.02,2,2.00783530683482,-0.163529711798107,0.203058357337766,-0.0112789308579701
7.04,2,2.00762044486123,-0.16487586220395,0.203058357337766,-0.0110715761591493
7.06,2,2.00738971244542,-0.166197315094417,0.203316577884219,-0.0111257515790998
7.08,2,2.00718337872227,-0.167491667208033,0.203580757459433,-0.010211998011542
7.1,2,2.00696630150717,-0.168763284394127,0.203580757459433,-0.0108791798178369
7.12,2,2.00676711175876,-0.170007308762371,0.203863543716573,-0.00944834021127344
7.14,2,2.00656434581089,-0.171230204277002,0.204107024301798,-0.0105738897015663
7.16,2,2.00636985459138,-0.172425260697964,0.204107024301798,-0.00889902261999299
7.18,2,2.00618093818776,-0.173599587516878,0.204338984914849,-0.0101271019312205
7.2,2,2.00599120109966,-0.174746573109352,0.204598598697487,-0.00849077096506907
7.22,2,2.00581567309886,-0.175872769631744,0.204598598697487,-0.00954150592840761
7.24,2,2.00563143486507,-0.176972906299907,0.204834233995764,-0.00822920333296662
7.26,2,2.00546805470424,-0.178051731836676,0.205039896775148,-0.00879567707215721
7.28,2,2.00529134182531,-0.179106742949511,0.205039896775148,-0.00808724356256955
7.3,2,2.00513699586813,-0.180139511690231,0.205269681758373,-0.00808746077963299
7.32,2,2.00496870922655,-0.181150173088032,0.205493460986201,-0.00800300003685252
7.34,2,2.00482119709775,-0.182137364757541,0.205493460986201,-0.00740972166819269
7.36,2,2.00466239763778,-0.183103959132614,0.205682815765229,-0.00791249493353291
7.38,2,2.00451900880901,-0.184046021081154,0.205889118804542,-0.0068140582975262
7.4,2,2.0043713395748,-0.184968657759397,0.205889118804542,-0.0076684647525782
7.42,2,2.00423252566707,-0.185866836992199,0.206102349689087,-0.00630749602231581
7.44,2,2.00409659321188,-0.186746616799663,0.206279580388029,-0.00731826027971459
7.46,2,2.0039614937497,-0.187602608985111,0.206279580388029,-0.00596910354135878
7.48,2,2.00383632651757,-0.188440417928579,0.206456370328981,-0.00686306899671851
7.5,2,2.00370559419497,-0.189255644534501,0.206650161094897,-0.00574245953512161
7.52,2,2.00359029040557,-0.190052528915619,0.206650161094897,-0.00633059431507214
7.54,2,2.00346426279175,-0.190828363288864,0.206816867823841,-0.00565018238425369
7.56,2,2.00335597807851,-0.1915850595325,0.20697116131562,-0.00576919939403751
7.58,2,2.00323615425249,-0.192322295118727,0.20697116131562,-0.00558601397656492
7.6,2,2.00313349657315,-0.193039647376288,0.20714612544326,-0.00521380133904508
7.62,2,2.00302106143389,-0.193739082849317,0.207307246459282,-0.00554425666874574
7.64,2,2.00292131040827,-0.194417749816759,0.207307246459282,-0.00479102267967911
7.66,2,2.00281608825664,-0.195079128266175,0.207449438914311,-0.00545102438922919
7.68,2,2.00271837984652,-0.195719139707919,0.207610461054507,-0.00444039088253479
7.7,2,2.00262106024725,-0.196342272213755,0.207610461054507,-0.00527647606448395
7.72,2,2.00252508345449,-0.196943961887339,0.207772796281234,-0.00418754344672381
7.74,2,2.00243600777831,-0.197528874395676,0.207908706667408,-0.00492556942959996
7.76,2,2.00234363241865,-0.19809350470604,0.207908706667408,-0.00398400700634315
7.78,2,2.00226244315413,-0.198641659138006,0.208049672642447,-0.004530935994237
7.8,2,2.00217352845784,-0.199170886550843,0.208199768849562,-0.00389556609613051
7.82,2,2.00209864892366,-0.19968335310023,0.208199768849562,-0.0040753102133931
7.84,2,2.0020146229466,-0.200178596938063,0.208324482151729,-0.00382352168152186
7.86,2,2.00194507190571,-0.200656992537187,0.208443645103997,-0.00360427159967374
7.88,2,2.00186700826276,-0.201120002369326,0.208443645103997,-0.00376844648758732
7.9,2,2.00180059498242,-0.201566071378404,0.208576803419385,-0.00321006123449582
7.92,2,2.00172864567256,-0.201998103613347,0.208692919287194,-0.00369014545114517
7.94,2,2.00166453291973,-0.202413230429268,0.208692919287194,-0.0028708093811521
7.96,2,2.00159994006817,-0.202815483148875,0.208794696152519,-0.00348921446701002
7.98,2,2.00153911661024,-0.203201818159406,0.208906639949291,-0.00254798457106235
8,2,2.00148269190558,-0.203576718320632,0.208906639949291,-0.00322696220588631
8.02,2,2.00645212888382,-0.205170488521755,0.203109681969986,0.293833918296727
8.04,2,2.01202349341519,-0.209787342540188,0.180584770968364,0.292816733277965
8.06,2,2.01762896606958,-0.217432817997763,0.180584770968364,0.291302467051329
8.08,2,2.023234879171,-0.228077384283261,0.157208779304,0.285102470694534
8.1,2,2.02874026756274,-0.241649763951577,0.13350873754047,0.27666412647834
8.12,2,2.03408551801226,-0.258043335854022,0.13350873754047,0.264090274801795
8.14,2,2.03916975403817,-0.277110444906308,0.110176546154154,0.248522835710433
8.16,2,2.0439513872219,-0.298667060566364,0.0879287841646943,0.230830862389247
8.18,2,2.04835610058224,-0.322501493524256,0.0879287841646943,0.210535695555261
8.2,2,2.05236754111938,-0.348373716447968,0.0673328010638608,0.189790708436187
8.22,2,2.05594595654876,-0.376031506818767,0.0487462010266067,0.167236241431682
8.24,2,2.05909059552695,-0.405204992922615,0.0487462010266067,0.145934119489694
8.26,2,2.06179711095999,-0.435626431071567,0.0324105950417911,0.123244626389902
8.28,2,2.06407393170409,-0.467020150893697,0.0184469001637851,0.103036321131658
8.3,2,2.06594174192482,-0.499122862962984,0.0184469001637851,0.0821089078668478
8.32,2,2.06741245164634,-0.531671610517514,0.00681480065232762,0.0638451163093438
8.34,2,2.06852604136104,-0.564420541984372,-0.0025869899776729,0.04575024760892
8.36,2,2.06929126225273,-0.597131654714383,-0.0025869899776729,0.0300240396233689
8.38,2,2.0697590410104,-0.629584121977843,-0.00986953730653647,0.0151302297742426
8.4,2,2.06993677112396,-0.661570827668325,-0.0152236802506373,0.00206757013357998
8.42,2,2.06987590194512,-0.692899568882352,-0.0152236802506373,-0.00949335958272341
8.44,2,2.06958462332995,-0.723396310828708,-0.0188578999827254,-0.0200606800511766
8.46,2,2.06910961493975,-0.752897504021382,-0.0209306509084414,-0.0284497097865041
8.48,2,2.06845280608133,-0.781216516731787,-0.0209306509084414,-0.0370137511788156
8.5,2,2.06763272046593,-0.80812556481464,-0.0213043893961023,-0.0430482167711576
8.52,2,2.06668355374231,-0.833453556621845,-0.0202847781875959,-0.0489616752499128
8.54,2,2.0656207426618,-0.857088083207432,-0.0202847781875959,-0.0534678803074784
8.56,2,2.06447683840155,-0.878945680241478,-0.018100184427493,-0.0571731900131607
8.58,2,2.0632673210788,-0.898967743153269,-0.0150404363817077,-0.0599166017047744
8.6,2,2.06201670787587,-0.917096543143748,-0.0150404363817077,-0.0617299356021812
8.62,2,2.06074380162265,-0.933304646883195,-0.0113640587004741,-0.0625914493173831
8.64,2,2.05946930702015,-0.947560734314287,-0.00703060676586306,-0.0623934011964193
8.66,2,2.0582123593746,-0.959856866730262,-0.00703060676586306,-0.0613964752008531
8.68,2,2.05698470668731,-0.970181043205126,-0.00245649067782108,-0.0596833267186656
8.7,2,2.05580425582934,-0.978545774089679,0.00238684158448972,-0.0571056450805977
8.72,2,2.05468411809189,-0.984966129435858,0.00238684158448972,-0.0538115777642653
8.74,2,2.05363813031463,-0.989474254249877,0.00732987632976348,-0.049888568704858
8.76,2,2.05267470135058,-0.992101016587042,0.0121096912974015,-0.0456125845435463
8.78,2,2.0518039110897,-0.99288696928442,0.0121096912974015,-0.0406951024227173
8.8,2,2.05103756821929,-0.991885835279895,0.0168325745743212,-0.0353655654411301
8.82,2,2.05038016523479,-0.989155896324157,0.0211684986469407,-0.0298759288175805
8.84,2,2.04983679925877,-0.984761768235451,0.0211684986469407,-0.024227096525101
8.86,2,2.04940765428164,-0.978760392371703,0.0251941613827245,-0.0184452810937963
8.88,2,2.04909543216879,-0.971228009848652,0.0288472465170258,-0.0126131765573222
8.9,2,2.04889806073703,-0.962230652504643,0.0288472465170258,-0.00690928103140393
8.92,2,2.04881051373383,-0.9518485342609,0.0319673546306687,-0.00135470663578626
8.94,2,2.04883352182413,-0.940146263441387,0.0347122992156639,0.0041474617837845
8.96,2,2.04895991289716,-0.927205311840835,0.0347122992156639,0.00940615556985662
8.98,2,2.04918933267581,-0.913096743567458,0.0369307534299073,0.0143460635945143
9,2,2.04950875204175,-0.897901158665445,0.0386802586213725,0.019015861869177
9.02,2,2.04992739077862,-0.881689698676215,0.0386802586213725,0.0234291342895942
9.04,2,2.05042732290773,-0.864532533412422,0.0400141114194993,0.0275567236071653
9.06,2,2.05101306651875,-0.846500467388396,0.0408727466948427,0.0312785576277762
9.08,2,2.05166405066057,-0.827662177617486,0.0408727466948427,0.0347184443783493
9.1,2,2.05239079003034,-0.808091383385089,0.0413486127785757,0.0378985075234248
9.12,2,2.05317511383636,-0.787846910920884,0.0414283646159592,0.040792028461742
9.14,2,2.05401783223896,-0.766996955510158,0.0414283646159592,0.0433840048175429
9.16,2,2.05490472466282,-0.745597949695204,0.0411378145126531,0.0457050108576316
9.18,2,2.05583385687114,-0.72371834898973,0.040512106264848,0.0477816445423059
9.2,2,2.05680004625088,-0.701409564327134,0.040512106264848,0.0496277224992599
9.22,2,2.05779734169843,-0.678733754359133,0.0395572005635561,0.0512421989610286
9.24,2,2.05882651674353,-0.655740582150208,0.0382984105277857,0.0525963603246016
9.26,2,2.05987347525361,-0.632489702426185,0.0382984105277857,0.0537401750987316
9.28,2,2.06094824971299,-0.6090307262328,0.0367587034732,0.0547112588654172
9.3,2,2.06203800734704,-0.585417842399469,0.034954155437602,0.0555125473799324
9.32,2,2.06315202432758,-0.561696915350486,0.034954155437602,0.0560597375397362
9.34,2,2.06426812545995,-0.537914827828664,0.0328921678742941,0.0563840210203155
9.36,2,2.06539799880396,-0.51411895612915,0.0306144551038699,0.0566426855839433
9.38,2,2.06652762800348,-0.490353571813634,0.0306144551038699,0.0566963396911452
9.4,2,2.06766310450214,-0.46666267957393,0.0281158303938412,0.0565477304473624
9.42,2,2.06878972177281,-0.443082170108722,0.0254233472602377,0.056230028270501
9.44,2,2.06990902097182,-0.419654595283859,0.0254233472602377,0.0558182670354839
9.46,2,2.07101584338856,-0.396414421044551,0.0225625141638594,0.0552644811666619
9.48,2,2.07210722999195,-0.373400336539943,0.0195326517276092,0.0544714555846128
9.5,2,2.0731835856678,-0.350640879875028,0.0195326517276092,0.0535914919084425
9.52,2,2.07423824873253,-0.328170164930058,0.0163780262158652,0.052660677509402
9.54,2,2.07527613132742,-0.306017002203805,0.0130899182726612,0.051544578339924
9.56,2,2.07628629778913,-0.284211935215705,0.0130899182726612,0.0502525410026461
9.58,2,2.07727732373984,-0.262780061819432,0.00970223795995525,0.0488524575641298
9.6,2,2.07823719079019,-0.241744870942903,0.00623803613183774,0.0474111954510205
9.62,2,2.07917134202874,-0.221129226240293,0.00623803613183774,0.0457513837000171
9.64,2,2.08006749237804,-0.200953050403682,0.0027040325677635,0.0439125587817219
9.66,2,2.08093072106331,-0.181235904073561,-0.000859859550368315,0.0421162409786725
9.68,2,2.08175543827557,-0.161993040614043,-0.000859859550368315,0.0402205845799436
9.7,2,2.08254190023731,-0.143240856687563,-0.0044498470694876,0.0381764040895736
9.72,2,2.08328537049612,-0.124991114644839,-0.00804010212008427,0.036036712036206
9.74,2,2.08398601978589,-0.107256815798387,-0.00804010212008427,0.033970606009457
9.76,2,2.08464652332812,-0.090047489677227,-0.0116251843223226,0.031911749152128
9.78,2,2.08526461146872,-0.0733739540894315,-0.0151873203156788,0.029687178926097
9.8,2,2.08583869847941,-0.0572431649195436,-0.0151873203156788,0.0274378177682077
9.82,2,2.08636990868629,-0.0416622351753226,-0.0187217958169002,0.0252477053627295
9.84,2,2.08685775571709,-0.0266370280760422,-0.0222180268697169,0.0230243707149723
9.86,2,2.08730101861654,-0.0121723797542704,-0.0222180268697169,0.0207342802788145
9.88,2,2.08769639018392,0.00172867811183178,-0.0256487449377439,0.0183999810942793
9.9,2,2.0880479927191,0.0150643791758589,-0.029039727354745,0.0161564629316516
9.92,2,2.08835217952503,0.0278332457515242,-0.029039727354745,0.0138967437501908
9.94,2,2.08861176141899,0.0400349925445756,-0.0323374159772867,0.0115460493664041
9.96,2,2.08882130572788,0.0516710038420732,-0.0355686117896128,0.00930099292102445
9.98,2,2.08898841081853,0.0627424561518743,-0.0355686117896128,0.0071027544007547
10,2,2.08911074829794,0.0732519351466705,-0.0387287514083702,0.00485948055440743
10.02,2,2.08919100447078,0.0832023118641846,-0.0417662196568305,0.00256459729506111
10.04,2,2.08922775227129,0.0925991828983322,-0.0417662196568305,0.000343249098599526
10.06,2,2.08921986874631,0.101446598135917,-0.0447461325355774,-0.00181129360641596
10.08,2,2.08917427122376,0.109750882577188,-0.0475891847935305,-0.00400234629085231
10.1,2,2.08908462102644,0.117518098192474,-0.0475891847935305,-0.00615657941446488
10.12,2,2.08895817810658,0.124756788604452,-0.0503364505577045,-0.00826353203203831
10.14,2,2.08877922000338,0.131474120660871,-0.0529892506091077,-0.0103119528312209
10.16,2,2.08856548996322,0.137678069603831,-0.0529892506091077,-0.0123466075345548
10.18,2,2.0883026049916,0.143377504709234,-0.0554768286565438,-0.0143920018932051
10.2,2,2.08800783816834,0.148582450431056,-0.0579134545570255,-0.0162595202239663
10.22,2,2.08766520963673,0.15330324714408,-0.0579134545570255,-0.0181255508610128
10.24,2,2.08728920007026,0.157548336347819,-0.0601799057040042,-0.0199597684163099
10.26,2,2.08687106473906,0.161329028780578,-0.062331925409192,-0.0217149092936893
10.28,2,2.08642530652577,0.164654579122248,-0.062331925409192,-0.0233727589360788
10.3,2,2.08595014701169,0.167537425139862,-0.0644220643947559,-0.0249538946334237
10.32,2,2.08544436268905,0.169985919711651,-0.0663160470605024,-0.0265015773209096
10.34,2,2.08491172776429,0.1720121075924,-0.0663160470605024,-0.0279760269217502
10.36,2,2.08434866991599,0.173624856809407,-0.0681755472216772,-0.0293727105960873
10.38,2,2.08377200770685,0.174836943107088,-0.0699005217088909,-0.0307273055333232
10.4,2,2.08315646580606,0.175658722769991,-0.0699005217088909,-0.0320638893029964
10.42,2,2.08252082501473,0.176102605487886,-0.0714948679063017,-0.0333337297591706
10.44,2,2.08184425648717,0.176178799273635,-0.0730357373567758,-0.0344916449853294
10.46,2,2.08115912434417,0.175898653960599,-0.0730357373567758,-0.0356690228168672
10.48,2,2.08043561407314,0.17527531780928,-0.0744027123492518,-0.0368105996713332
10.5,2,2.07969972146167,0.174320656215001,-0.075744129870928,-0.0378555847512291
10.52,2,2.07892708930194,0.173047190674013,-0.075744129870928,-0.0388542867177811
10.54,2,2.07814337630079,0.17146509219159,-0.076927635081249,-0.0398320418410256
10.56,2,2.0773398903893,0.169589065843006,-0.0779920785955796,-0.0408048619577641
10.58,2,2.07652515742591,0.167430305049255,-0.0779920785955796,-0.0416835260102949
10.6,2,2.07569622328506,0.165002950596497,-0.0790455482534536,-0.0424676933345333
10.62,2,2.07484694935744,0.162316614760359,-0.0798710458234371,-0.0432270520823856
10.64,2,2.07399902173014,0.159385162179438,-0.0798710458234371,-0.0439342862446929
10.66,2,2.07313089811377,0.15621972590068,-0.0806926197261255,-0.0445622146822882
10.68,2,2.07226316601724,0.152833633824453,-0.0814285050472651,-0.0451077598719312
10.7,2,2.0713608082094,0.149237282513116,-0.0814285050472651,-0.0456265996073753
10.72,2,2.07046378140484,0.14544184135683,-0.0819882149404633,-0.0460878838010561
10.74,2,2.06953974485587,0.14145863106946,-0.082572449665205,-0.0465098592694849
10.76,2,2.06862409542431,0.137299113186864,-0.082572449665205,-0.0468911131132811
10.78,2,2.06768136677832,0.13297530579608,-0.0829980157360833,-0.0472026409300896
10.8,2,2.06674014484046,0.128496433846126,-0.0833849840588628,-0.0474720213891383
10.82,2,2.06578244067377,0.123873932809449,-0.0833849840588628,-0.0477224446320253
10.84,2,2.06483428552425,0.119117593384862,-0.0836964173550655,-0.0478999908975107
10.86,2,2.06388482417971,0.114239094320072,-0.0838839073131621,-0.0480168737253458
10.88,2,2.06293198747779,0.109246567616841,-0.0838839073131621,-0.048054179803962
10.9,2,2.06198350212308,0.104150035160702,-0.0841149787706937,-0.0480110592213448
10.92,2,2.06103732661382,0.0989570043796712,-0.0841709921340137,-0.0479375223953031
10.94,2,2.06010936173918,0.093677207538924,-0.0841709921340137,-0.0478173498667617
10.96,2,2.05916458241428,0.088318220965053,-0.0842417139330818,-0.0476577872650012
10.98,2,2.05823366564604,0.082888212028969,-0.0843100377660167,-0.047436318945286
11,2,2.05728592940187,0.0773939732697137,-0.0843100377660167,-0.0471957491027503
11.02,2,2.05636337412867,0.071843051054712,-0.0842136537846709,-0.0469336649555621
11.04,2,2.05542494291166,0.0662430735097825,-0.0842177788276257,-0.04665409474281
11.06,2,2.0545064125863,0.0606009333945872,-0.0842177788276257,-0.0463507313935595
11.08,2,2.05357075138675,0.0549237349251215,-0.0841106310970288,-0.0460324245490634
11.1,2,2.05265567121738,0.0492178043756661,-0.0839631257462014,-0.0456819512668484
11.12,2,2.05174579886145,0.0434905479601378,-0.0839631257462014,-0.0453256376808226
11.14,2,2.05085191161088,0.0377480406046981,-0.0838497016205867,-0.0449369706273409
11.16,2,2.04996507758786,0.0319970038126508,-0.0836092478582812,-0.0445219703836293
11.18,2,2.04908253390882,0.0262429888828509,-0.0836092478582812,-0.0440898626979219
11.2,2,2.04822981579882,0.0204922871150677,-0.0834551597159068,-0.0436289674272848
11.22,2,2.04737511667818,0.0147504268015544,-0.0831966566501379,-0.0431567881787071
11.24,2,2.04654258065489,0.00902304668528455,-0.0831966566501379,-0.0426648677830639
11.26,2,2.0456936490759,0.00331534433782989,-0.0829201910073886,-0.0421413251991693
11.28,2,2.04487641799833,-0.00236770516199382,-0.0827113637581523,-0.0416315686744444
11.3,2,2.04404737232345,-0.00802106398367362,-0.0827113637581523,-0.0410907176174076
11.32,2,2.04324815507926,-0.0136400760559788,-0.0823503014024641,-0.0405196592127323
11.34,2,2.04243680421908,-0.0192204206020839,-0.0820974247332027,-0.0399523675678788
11.36,2,2.04164676035243,-0.0247576843415589,-0.0820974247332027,-0.0393590668811253
11.38,2,2.04085787505778,-0.0302480652250275,-0.0817912941328282,-0.0387741947454956
11.4,2,2.04009529250195,-0.0356874601850032,-0.0814301106164211,-0.0381696885468304
11.42,2,2.03934510148186,-0.0410725888385224,-0.0814301106164211,-0.0375506916584704
11.44,2,2.03860440217718,-0.0463994458656492,-0.0811583389065404,-0.0368775208708682
11.46,2,2.03788562325312,-0.0516655893195668,-0.0807792511885644,-0.0361519003162231
11.48,2,2.03718052065943,-0.0568682769028252,-0.0807792511885644,-0.0354384119583295
11.5,2,2.03650563885321,-0.0620060619400634,-0.0805044571509068,-0.0347285363619655
11.52,2,2.03582330276403,-0.0670763607935643,-0.080191712805355,-0.0340092398227863
11.54,2,2.03516907690327,-0.072077509086923,-0.080191712805355,-0.0332890250581816
11.56,2,2.03450841182289,-0.0770072850835893,-0.0798417986123995,-0.0325839544732502
11.58,2,2.03388207598517,-0.0818642591188742,-0.0796264957667168,-0.0318881550198321
11.6,2,2.03324627048715,-0.0866469155848457,-0.0796264957667168,-0.0311939411110794
11.62,2,2.03263875037912,-0.0913532514733105,-0.0792775325496451,-0.0304966924044234
11.64,2,2.0320223635615,-0.0959819323452524,-0.0790138678845718,-0.0298114106501452
11.66,2,2.03143607779516,-0.100530976359721,-0.0790138678845718,-0.0291267538824804
11.68,2,2.03085910991382,-0.105000376624792,-0.0787901560158198,-0.0284394524645351
11.7,2,2.03030458733069,-0.109387859967934,-0.0784789408153865,-0.0277483988299179
11.72,2,2.02975967138331,-0.113693378572067,-0.0784789408153865,-0.0270635777806881
11.74,2,2.02922839535973,-0.117914297125506,-0.0782835504208925,-0.026384143140254
11.76,2,2.0287278827699,-0.122051487523417,-0.0780316410069349,-0.0257280923044963
11.78,2,2.02822929302331,-0.126103064488799,-0.0780316410069349,-0.0250938614720218
11.8,2,2.02775496920248,-0.130069296953978,-0.0778284398843495,-0.0244461269794073
11.82,2,2.0272700741317,-0.133948077602151,-0.0776370330149395,-0.0238326490615365
11.84,2,2.02681950374393,-0.137739177461622,-0.0776370330149395,-0.023180117563028
11.86,2,2.02635897675852,-0.141442388829923,-0.0774000973789508,-0.0225270841457839
11.88,2,2.02593050614929,-0.145057605417555,-0.0773031897604275,-0.0218245750511405
11.9,2,2.02549140892003,-0.148585642081509,-0.0773031897604275,-0.0211309876262619
11.92,2,2.02508003177471,-0.152025693134983,-0.0770980369780827,-0.0204416194464792
11.94,2,2.02467044280403,-0.155380377594264,-0.0769696621764855,-0.0197838194387631
11.96,2,2.024287122414,-0.158648770010263,-0.0769696621764855,-0.019133599180529
11.98,2,2.02391462790713,-0.161833493709231,-0.0769356411838043,-0.0185022173009068
12,2,2.02355191313759,-0.164932417015543,-0.0767748401885867,-0.0178864058623639
12.02,2,2.02321185713435,-0.167948119103375,-0.0767748401885867,-0.017294731058258
12.04,2,2.02287939191943,-0.170879182506067,-0.0767639686457654,-0.016708838155382
12.06,2,2.02257476911161,-0.17372842221834,-0.0767293866484476,-0.0161196912752209
12.08,2,2.02225908691691,-0.176494906744252,-0.0767293866484476,-0.0155611642346721
12.1,2,2.02197187800071,-0.179179851124575,-0.0766776052127168,-0.0150110916808532
12.12,2,2.02167377757369,-0.181783179771781,-0.0767087987948308,-0.0144584877377658
12.14,2,2.02140773363407,-0.184306368815037,-0.0767087987948308,-0.013905725720895
12.16,2,2.02112864895376,-0.186750896314241,-0.0766861643538533,-0.0133715206191568
12.18,2,2.02087551330103,-0.189116516420228,-0.076778255266582,-0.0128387113226283
12.2,2,2.02061236401498,-0.191405333188943,-0.076778255266582,-0.0123129714609484
12.22,2,2.02037539653273,-0.193617153870499,-0.0768101132666533,-0.0118006308637536
12.24,2,2.02014244753001,-0.195755700860678,-0.0768717710389046,-0.0113315459428133
12.26,2,2.01992543066697,-0.197819275219289,-0.0768717710389046,-0.0108774474704215
12.28,2,2.01971558742889,-0.199810715869847,-0.0770439207852704,-0.0104142476672247
12.3,2,2.01951633144947,-0.201728176028279,-0.0770862706767237,-0.00993861020139655
12.32,2,2.01934126511627,-0.203575942922091,-0.0770862706767237,-0.00947494374171852
12.34,2,2.01916471610614,-0.205353283483315,-0.0772691668453436,-0.00902044209444945
12.36,2,2.01900925591266,-0.207063639593295,-0.0774599259710164,-0.00853803921781968
12.38,2,2.01884244096732,-0.208706388906972,-0.0774599259710164,-0.00809116523206218
12.4,2,2.01870533875193,-0.210284403777175,-0.0775966720699832,-0.00763022092898204
12.42,2,2.01855333865628,-0.211799217790185,-0.0778610562861304,-0.00721570009352589
12.44,2,2.01842897649685,-0.213252275208734,-0.0778610562861304,-0.0067757041987043
12.46,2,2.01828741426354,-0.21464547550696,-0.0780601341193004,-0.0063515110972635
12.48,2,2.01817103245645,-0.215979064233134,-0.078346521629894,-0.00594358735716388
12.5,2,2.01804912209964,-0.217257414802152,-0.078346521629894,-0.00554548921576701
12.52,2,2.01794857500945,-0.218479906715833,-0.0786339291032558,-0.00521754774825116
12.54,2,2.01784797132665,-0.219650312179397,-0.0788970243558098,-0.00491551245411734
12.56,2,2.01775468703736,-0.220765715005332,-0.0788970243558098,-0.00459737467180027
12.58,2,2.01767747513454,-0.221830471927059,-0.0792822169811625,-0.00430740019113051
12.6,2,2.0176007586318,-0.222842819945912,-0.0795523198081885,-0.00403832505302549
12.62,2,2.01754601817615,-0.223806693434028,-0.0795523198081885,-0.00376391217124487
12.64,2,2.01747474591471,-0.224720651034618,-0.0799133240474163,-0.0034960141406408
12.66,2,2.01742873866292,-0.225587051598526,-0.0803168712201623,-0.00323221737156331
12.68,2,2.01736293487524,-0.226405891174384,-0.0803168712201623,-0.00296502425543162
12.7,2,2.0173247553012,-0.227178859073739,-0.0806190126455865,-0.00269664298418287
12.72,2,2.01726604379931,-0.227907716001106,-0.0810571568584871,-0.00241330132080078
12.74,2,2.01723145066301,-0.228592455592441,-0.0810571568584871,-0.00214118087493693
12.76,2,2.0171796221161,-0.229236431228064,-0.0814451229963058,-0.00189455796069374
12.78,2,2.01714796671302,-0.22983868819606,-0.0818566695100802,-0.00167259314199582
12.8,2,2.01711305750816,-0.230403505328026,-0.0818566695100802,-0.00144180635552124
12.82,2,2.01708832792312,-0.230928611198504,-0.0823124579363572,-0.00122757594415642
12.84,2,2.01706806956948,-0.231418101499773,-0.0827087450428063,-0.00103509871970018
12.86,2,2.01705160885079,-0.231869484110011,-0.0827087450428063,-0.000820793152280073
12.88,2,2.01705459507422,-0.232287779566041,-0.0832333224244258,-0.000601344319796148
12.9,2,2.01704988930669,-0.232671749533591,-0.0836702280040799,-0.000431602533075126
12.92,2,2.01706332506955,-0.233024867717397,-0.0836702280040799,-0.000298444229448861
12.94,2,2.01705646544313,-0.233345494511992,-0.0841424899380022,-0.000171150600580603
12.96,2,2.017075305923,-0.233635878804611,-0.0847040198409978,-3.58750878963274e-05
12.98,2,2.01707140967174,-0.233896561368875,-0.0847040198409978,8.77555108727555e-05
13,2,2.01709196592417,-0.234128341554393,-0.0851367198656618,0.000188726098006869
13.02,2,2.01708730308045,-0.234332368158236,-0.0856915664449929,0.000328146061292985
13.04,2,2.01710404524011,-0.234507926991572,-0.0856915664449929,0.000437848834829912
13.06,2,2.01710590285772,-0.234658491068995,-0.0862236755200109,0.000536326959999674
13.08,2,2.01712553772995,-0.234782183875961,-0.0867216637213843,0.000625786722860697
13.1,2,2.0171393450315,-0.234882637734279,-0.0867216637213843,0.000728506709607593
13.12,2,2.01715909447534,-0.234956843220369,-0.0872927428364131,0.000835097399612704
13.14,2,2.01718879704156,-0.235009080448332,-0.0877964695438771,0.000923255614072126
13.16,2,2.01721439253549,-0.235036929349659,-0.0877964695438771,0.0010063195751884
13.18,2,2.0172586023916,-0.235044390290923,-0.0883996598146908,0.00110545756481754
13.2,2,2.01728315811628,-0.235029438709844,-0.0889332065352645,0.0012071552031458
13.22,2,2.01733150761484,-0.234995090194339,-0.0889332065352645,0.00131465876725077
13.24,2,2.01735473841271,-0.234941192602612,-0.0894714829160612,0.00142977700970344
13.26,2,2.01740649397858,-0.234869717517139,-0.090130310139473,0.00158440083276946
13.28,2,2.01743140767089,-0.234782562878068,-0.090130310139473,0.0016786440324413
13.3,2,2.01747951831692,-0.234679651537329,-0.0906483271910519,0.00177144582283469
13.32,2,2.01750405795687,-0.234563692188593,-0.0912787377867006,0.00185765288610612
13.34,2,2.01754788446599,-0.234433480546821,-0.0912787377867006,0.00193815565624453
13.36,2,2.01758282718801,-0.234293223482299,-0.0919280644716723,0.00200396123311382
13.38,2,2.01762715059949,-0.23414035488405,-0.0924892137479685,0.00203027934349316
13.4,2,2.01767128048563,-0.23397864048337,-0.0924892137479685,0.00208545803442965
13.42,2,2.01771516042363,-0.233804887983872,-0.0931547137606054,0.00216856960693894
13.44,2,2.01777524315229,-0.233623867233535,-0.0937622905078744,0.00221082187332416
13.46,2,2.01782355272357,-0.233433411452433,-0.0937622905078744,0.00221334124888191
13.48,2,2.01789024848601,-0.233236559414565,-0.0944218858990051,0.00222397032572162
13.5,2,2.01792919117552,-0.233031270568626,-0.0950582945405935,0.00221144295121331
13.52,2,2.01799425409256,-0.232819257148827,-0.0950582945405935,0.00218166635441612
13.54,2,2.01802909037872,-0.232600126544059,-0.0956580157484382,0.00209469439932839
13.56,2,2.01808931163747,-0.232373620712077,-0.0963725643763736,0.00207934850173366
13.58,2,2.01811733036389,-0.23214061780491,-0.0963725643763736,0.00207516763577678
13.6,2,2.01816767736806,-0.231899560892913,-0.0969416573878554,0.00206395835223591
13.62,2,2.0181972847641,-0.231653473652528,-0.0975837949186495,0.00204885242430484
13.64,2,2.01824585431901,-0.231400178216401,-0.0975837949186495,0.00204150006439512
13.66,2,2.01828470778848,-0.231143267848327,-0.0982893218765033,0.00202106812390992
13.68,2,2.01832710136849,-0.230878841164859,-0.0988504295275419,0.00199421419139845
13.7,2,2.0183770348211,-0.230610650036059,-0.0988504295275419,0.00196707194655273
13.72,2,2.01842063309546,-0.230335692973385,-0.0995404180004624,0.00192404077776114
13.74,2,2.0184841731491,-0.230057517148987,-0.100183154847829,0.00187314297053652
13.76,2,2.01852103648131,-0.229773014024774,-0.100183154847829,0.00183252638243849
13.78,2,2.01858225239954,-0.229484316355363,-0.100802461039036,0.00184010848593807
13.8,2,2.01861394272225,-0.229190632073937,-0.101467002937903,0.0018553968575699
13.82,2,2.0186762157405,-0.228893538361816,-0.101467002937903,0.00188141574021887
13.84,2,2.01870431923654,-0.228593949644408,-0.102076895206288,0.00185176090444311
13.86,2,2.01875780896948,-0.228291149360565,-0.102791797775485,0.00187284167910606
13.88,2,2.01878270580797,-0.22798720082569,-0.102791797775485,0.00184818739123294
13.9,2,2.01882760711651,-0.227680371987183,-0.103399348610989,0.00180412723865367
13.92,2,2.01885933655782,-0.22737402905812,-0.104041269519753,0.00175430546883529
13.94,2,2.01890062816264,-0.22706507569678,-0.104041269519753,0.00177077313844136
13.96,2,2.01893915869523,-0.226756836273367,-0.104767882725226,0.00179372070954498
13.98,2,2.01897635678369,-0.226446185429942,-0.105336171547688,0.00177806438691651
14,2,2.01902828021595,-0.22613720015188,-0.105336171547688,0.00176183642961132
14.02,2,2.01906874474737,-0.225827344504019,-0.106036704201065,0.00174208184109989
14.04,2,2.01912660393339,-0.225519494060539,-0.106714595306684,0.00173479150704463
14.06,2,2.01915373802709,-0.225211509923819,-0.106714595306684,0.00169764273051651
14.08,2,2.01921040848062,-0.224905164106142,-0.107320821494798,0.00165110218096934
14.1,2,2.01923323196552,-0.22459996749114,-0.108015345455677,0.00162064825535012
14.12,2,2.01928426009921,-0.224296329191557,-0.108015345455677,0.00159684710237133
14.14,2,2.01929807439917,-0.223994807932745,-0.108633336852634,0.00154992780289744
14.16,2,2.01933890993835,-0.223693875304374,-0.109324712283282,0.00153307056514047
14.18,2,2.01935363894858,-0.223396460840728,-0.109324712283282,0.00149748958638273
14.2,2,2.01939127362765,-0.223100558686527,-0.109960915668187,0.00145338213966905
14.22,2,2.01941456164552,-0.222809419667521,-0.11058470111977,0.00137260279203497
14.24,2,2.01944051060367,-0.222518400119749,-0.11058470111977,0.00129669234224449
14.26,2,2.01947229273375,-0.222230792212383,-0.111305557386917,0.00121557152002732
14.28,2,2.01949897309957,-0.221943245015878,-0.111871069986675,0.00110445010663542
14.3,2,2.01954738676184,-0.221659134339769,-0.111871069986675,0.000993125331150847
14.32,2,2.0195611333633,-0.221374197885272,-0.112533348953356,0.000892891197215423
14.34,2,2.01960142146786,-0.221089862148176,-0.113197840352255,0.000828011926363602
14.36,2,2.01960820902251,-0.220804507226478,-0.113197840352255,0.000726747034011625
14.38,2,2.01964859251453,-0.220518992697773,-0.113749512373152,0.000631677109355018
14.4,2,2.01964464641925,-0.220232805570706,-0.114404835266033,0.000560442975290962
14.42,2,2.01967076857422,-0.219944301874818,-0.114404835266033,0.000500058656298022
14.44,2,2.01966461333974,-0.219655066990199,-0.114987308452984,0.000444036007436007
14.46,2,2.01968246407964,-0.219363304343162,-0.1156017931563,0.000419348607893479
14.48,2,2.01968235031141,-0.219072537709118,-0.1156017931563,0.000400885658807825
14.5,2,2.0196943945655,-0.218779388854799,-0.116210837052838,0.000363152346080205
14.52,2,2.01970255992623,-0.218487141332496,-0.116768853491178,0.000340545043174293
14.54,2,2.01971107213111,-0.218192479008006,-0.116768853491178,0.000339056858867164
14.56,2,2.01973817588031,-0.217899874656763,-0.117452633889877,0.00034152258567892
14.58,2,2.01975084961821,-0.217606850905677,-0.118002259147814,0.000336840989725622
14.6,2,2.01978256807986,-0.217316205398655,-0.118002259147814,0.00032139959610753
14.62,2,2.01978140760015,-0.217025702273979,-0.118601754885327,0.000307595084823414
14.64,2,2.01981803213401,-0.216737592478797,-0.11928247054569,0.000323578347099843
14.66,2,2.01981746116133,-0.216452387957786,-0.11928247054569,0.000312065393511991
14.68,2,2.01984596164889,-0.216170334609449,-0.119819723385843,0.000288345044450112
14.7,2,2.01983293138589,-0.215891526231941,-0.120466532753553,0.000278666195276934
14.72,2,2.01985296589757,-0.215614854371056,-0.120466532753553,0.000298359666800307
14.74,2,2.01984462976864,-0.215343755740552,-0.121085207752307,0.000282727495235064
14.76,2,2.01985871026637,-0.215076412895351,-0.121682582599955,0.000274893229158226
14.78,2,2.01985519360786,-0.214815457435994,-0.121682582599955,0.000229117549986039
14.8,2,2.0198584190458,-0.214556933226612,-0.122307260655988,0.000198570302893413
14.82,2,2.01986776196042,-0.214304717487629,-0.122874064431044,0.000167637629166867
14.84,2,2.01987407872507,-0.214055914694262,-0.122874064431044,0.000135211337403799
14.86,2,2.01990065421325,-0.213814080486082,-0.123555432383964,0.000104513586038576
14.88,2,2.01989436283697,-0.213575734325899,-0.124109564297624,9.55322194793841e-06
14.9,2,2.01991855383896,-0.213342764171399,-0.124109564297624,-8.12716363539489e-05
14.92,2,2.01990810381034,-0.213113216181938,-0.124684410646737,-0.000194459857642822
14.94,2,2.01993356955393,-0.212888285399003,-0.125371233770209,-0.00023800672906732
14.96,2,2.01990914925126,-0.212667091219366,-0.125371233770209,-0.000265371694080037
14.98,2,2.01992061537846,-0.212448377093841,-0.125860846009689,-0.000302005120402382
15,2,2.01989641236435,-0.212233802669876,-0.126480884493248,-0.000331075905949944
15.02,2,2.0199061880822,-0.212022550253742,-0.126480884493248,-0.000334441978726746
15.04,2,2.01988716270553,-0.211817872459275,-0.127119232091964,-0.000335021779333852
15.06,2,2.01988156839224,-0.211615619686959,-0.127641717698601,-0.000353770217165185
15.08,2,2.01987113488089,-0.211419255381461,-0.127641717698601,-0.000383074773598727
15.1,2,2.01986656688908,-0.211225629528085,-0.128260130695079,-0.000407273130902882
15.12,2,2.01987916133021,-0.211039324250655,-0.128833420108365,-0.000430136359210347
15.14,2,2.01986774920502,-0.210856179446476,-0.128833420108365,-0.000452771266356769
15.16,2,2.01988175754118,-0.210678814141371,-0.129447090673196,-0.000486843492413528
15.18,2,2.01986299716474,-0.210504933730337,-0.130002259309779,-0.000535324858565125
15.2,2,2.01988651922668,-0.210336768065729,-0.130002259309779,-0.00058938562028895
15.22,2,2.01986019057652,-0.210173404061085,-0.130563255992172,-0.000673276001566881
15.24,2,2.01986933502409,-0.210013879001473,-0.131216498618967,-0.000722503836427595
15.26,2,2.01983443216694,-0.209858155406998,-0.131216498618967,-0.000773028260253454
15.28,2,2.01983757586557,-0.209704887007727,-0.131693616695295,-0.000794080686147455
15.3,2,2.01980854878731,-0.209557290386075,-0.132295224660221,-0.000808529992242147
15.32,2,2.01980156714623,-0.209412627848463,-0.132295224660221,-0.000803228002702231
15.34,2,2.01977571233143,-0.20927351950063,-0.132919640206692,-0.000800071255355477
15.36,2,2.01976075449129,-0.209136473587207,-0.13340370336911,-0.000802059744102281
15.38,2,2.01975850853779,-0.209006143261056,-0.13340370336911,-0.000793344105134093
15.4,2,2.01974818580395,-0.208879787158532,-0.134035949138595,-0.000760872870923121
15.42,2,2.01975471270923,-0.208760393745996,-0.134602271612093,-0.000740573567313836
15.44,2,2.01973144795877,-0.208644774741331,-0.134602271612093,-0.000749495143509984
15.46,2,2.01974849015319,-0.208535897038782,-0.135169594557739,-0.000775875367282564
15.48,2,2.01972865530144,-0.208432837677636,-0.13576625019882,-0.000807757208155712
15.5,2,2.01974035282836,-0.208336528941416,-0.13576625019882,-0.000848555444483276
15.52,2,2.01969975795523,-0.208245229024614,-0.136296911577396,-0.000909219383941599
15.54,2,2.01970262089853,-0.208157812801353,-0.136929502431439,-0.000931696452933493
15.56,2,2.01966728506371,-0.208076141168898,-0.136929502431439,-0.000973487488091848
15.58,2,2.0196645187494,-0.2079989611882,-0.137440685592264,-0.00103356284978645
15.6,2,2.01962587857405,-0.207927775575128,-0.137990135108641,-0.00109836263523726
15.62,2,2.01960507473465,-0.207858066855749,-0.137990135108641,-0.00113763137506239
15.64,2,2.01957787923835,-0.207793062354018,-0.13860378144351,-0.00120050638031344
15.66,2,2.0195606254386,-0.207729431390204,-0.139069197366957,-0.00129245647514109
15.68,2,2.01955130933672,-0.207670335975548,-0.139069197366957,-0.001369467670397
15.7,2,2.0195166919957,-0.207610484100479,-0.13964215633088,-0.00142559887406427
15.72,2,2.01951085880011,-0.207552230286983,-0.140170864990699,-0.00148185668593261
15.74,2,2.01947723156837,-0.207492955351129,-0.140170864990699,-0.00155096170561885
15.76,2,2.01948347812026,-0.207435297881149,-0.140673972985396,-0.00161772831803642
15.78,2,2.01942940266147,-0.207376673830902,-0.141200284707781,-0.00165559950588483
15.8,2,2.01941858169802,-0.207316154916356,-0.141200284707781,-0.00166101000468473
15.82,2,2.01936396944891,-0.20725416507492,-0.141658340970682,-0.00167846205289209
15.84,2,2.01935758349048,-0.207190773999597,-0.142239677166743,-0.0016516143311253
15.86,2,2.0193048867338,-0.207128652053383,-0.142239677166743,-0.00162614251211078
15.88,2,2.01927711615716,-0.20706422734886,-0.142694715716496,-0.00158472226550411
15.9,2,2.01923087795641,-0.207000819863908,-0.143167299481657,-0.00157653677071462
15.92,2,2.01920634664215,-0.206935733572103,-0.143167299481657,-0.00156455277098002
15.94,2,2.01918865488183,-0.206874011368433,-0.143779511772862,-0.00154132349857243
15.96,2,2.01915567012685,-0.206811456731377,-0.144196992336836,-0.00152124441430165
15.98,2,2.01914245050543,-0.206751048502155,-0.144196992336836,-0.0014923586330716
16,2,2.01910505596559,-0.206689927803655,-0.144726598082556,-0.00147559909808341
16.02,2,2.01911493662662,-0.206631925814626,-0.145294327515227,-0.00147091798153866
16.04,2,2.01907421075267,-0.206575763342138,-0.145294327515227,-0.00150630408215861
16.06,2,2.01907020331485,-0.20652162069704,-0.145747046396833,-0.00154388924524676
16.08,2,2.01901369835161,-0.206467981244688,-0.146267795924456,-0.00156069708729482
16.1,2,2.01901010623964,-0.206414539537853,-0.146267795924456,-0.00157119287005822
16.12,2,2.01896322230261,-0.206363921637375,-0.146763913690207,-0.00161602641111914
16.14,2,2.01894635777848,-0.206313722876946,-0.147302451739152,-0.00159711678952771
16.16,2,2.01889099751491,-0.206265516319651,-0.147302451739152,-0.00159860722496628
16.18,2,2.01886146691423,-0.20621603883647,-0.147758802678758,-0.00160331423243402
16.2,2,2.01883218956795,-0.206169799175102,-0.148240014831121,-0.00163663183053508
16.22,2,2.01880509105719,-0.206123497726917,-0.148240014831121,-0.00163610323235702
16.24,2,2.01878085178383,-0.206079679903632,-0.148824258699111,-0.00164975945828246
16.26,2,2.01873675935063,-0.206033998463646,-0.149210329352657,-0.00170109586541522
16.28,2,2.01873392262928,-0.205989813108464,-0.149210329352657,-0.00169542463106178
16.3,2,2.01869999274097,-0.205945576881281,-0.149723882783409,-0.00172308988835163
16.32,2,2.01869816672056,-0.205903312559938,-0.150287050876458,-0.00172305545600865
16.34,2,2.01863825718732,-0.205860423681517,-0.150287050876458,-0.00175887312336503
16.36,2,2.01863069801216,-0.205816827535397,-0.150669444381987,-0.00176707767496218
16.38,2,2.01857913200138,-0.205773562184002,-0.151197422245993,-0.00178439556467048
16.4,2,2.018572311455,-0.20573065755155,-0.151197422245993,-0.0018010294231865
16.42,2,2.0185115273865,-0.205688950075733,-0.151692931053283,-0.0018212324378036
16.44,2,2.01848006616679,-0.205644769071065,-0.152140363021216,-0.00180290669388215
16.46,2,2.01843020265911,-0.205601602405751,-0.152140363021216,-0.00178827134568158
16.48,2,2.01840944428087,-0.205557514853165,-0.152621718474464,-0.00177431636342911
16.5,2,2.01837983569107,-0.205516436998238,-0.153077318664343,-0.00177002395489961
16.52,2,2.01833524383642,-0.205473211179035,-0.153077318664343,-0.00173128694112724
16.54,2,2.01831441538275,-0.205431471806965,-0.153604442132684,-0.00166977735031272
16.56,2,2.01828233278451,-0.205389286080461,-0.154017970236811,-0.00166037365615022
16.58,2,2.01828824670001,-0.205350922600887,-0.154017970236811,-0.00165760817015731
16.6,2,2.01823177353282,-0.205313307686198,-0.154498615629914,-0.00169837294512629
16.62,2,2.01822189820162,-0.20527661803938,-0.155028327189305,-0.00171597958293765
16.64,2,2.01816379937026,-0.205239981120832,-0.155028327189305,-0.00179027620170387
16.66,2,2.01816350790589,-0.205204092898367,-0.155405176322631,-0.00181227255113634
16.68,2,2.01810243645646,-0.205169983298886,-0.155913187846321,-0.00187540964231669
16.7,2,2.01807753617305,-0.205134176333872,-0.155913187846321,-0.001859452241072
16.72,2,2.01801170931725,-0.205098689589079,-0.156375152331917,-0.0018823905726015
16.74,2,2.0179864951678,-0.205061277907909,-0.156795720990227,-0.00188317535616268
16.76,2,2.01795070666626,-0.205026651879316,-0.156795720990227,-0.00186652307236212
16.78,2,2.01791158334378,-0.204990297291939,-0.157278622288367,-0.0018576109717665
16.8,2,2.0178762224019,-0.204955031276176,-0.157684954937694,-0.00184942580841527
16.82,2,2.01783020309365,-0.204917267907676,-0.157684954937694,-0.00184966196441129
16.84,2,2.01783283124128,-0.204881738292264,-0.158193980965781,-0.00186043714345242
16.86,2,2.01778629610063,-0.204845930513402,-0.158609994289864,-0.00187265633796223
16.88,2,2.01777329483118,-0.20481096271301,-0.158609994289864,-0.00185590689302623
16.9,2,2.01770786573722,-0.204774625957308,-0.159013803303522,-0.00183495013778442
16.92,2,2.01770727726995,-0.20473850163037,-0.159549613800688,-0.00179944162615014
16.94,2,2.01765213172363,-0.204704486538237,-0.159549613800688,-0.00179927715337084
16.96,2,2.01763697037472,-0.204671225849935,-0.159917216598112,-0.00180063336545822
16.98,2,2.01756846506331,-0.204639188122329,-0.160368041808357,-0.00180537461336179
17,2,2.01753780598404,-0.204605854868183,-0.160368041808357,-0.00181054209819184
17.02,2,2.01749254546979,-0.204575646604422,-0.160858223511279,-0.00184276793647561
17.04,2,2.01746438095399,-0.204545386126831,-0.161248603055762,-0.00187664598730432
17.06,2,2.01742120571958,-0.204517270954851,-0.161248603055762,-0.00190774413962716
17.08,2,2.01737074611435,-0.204486364937064,-0.161688022589987,-0.00192324253024639
17.1,2,2.01735323985835,-0.204456889167264,-0.162106341211744,-0.00194257843411629
17.12,2,2.01731917931247,-0.204426483628294,-0.162106341211744,-0.0019786774548919
17.14,2,2.01731025657373,-0.204397695889836,-0.16258281560431,-0.00199002746388995
17.16,2,2.01724408290097,-0.204366840886159,-0.162960601404519,-0.00200519528375601
17.18,2,2.01723615388015,-0.20433519550437,-0.162960601404519,-0.00199604924585754
17.2,2,2.01718168101572,-0.204303092197406,-0.163358113178808,-0.00202209386862831
17.22,2,2.01717780964311,-0.204271479133304,-0.163890584751261,-0.00200040100922021
17.24,2,2.01710672975648,-0.204240186643542,-0.163890584751261,-0.00197250696325171
17.26,2,2.01708211990872,-0.20420680677596,-0.164205984566038,-0.00194358927781455
17.28,2,2.01702037746963,-0.204174672501316,-0.1646361737529,-0.00191337016435947
17.3,2,2.01700521342626,-0.204142837097795,-0.1646361737529,-0.00188663502257393
17.32,2,2.01695957401013,-0.204114662808877,-0.165164723474909,-0.00189843002865046
17.34,2,2.01691363162082,-0.204084632219452,-0.165479436216928,-0.00189377639585233
17.36,2,2.01687844267437,-0.204056441768345,-0.165479436216928,-0.00187430468131717
17.38,2,2.01684413566569,-0.204027615741593,-0.165929489720099,-0.00187061852687856
17.4,2,2.01684282409794,-0.204002657444743,-0.166388889263462,-0.00188012732831351
17.42,2,2.01678308193123,-0.203977229290374,-0.166388889263462,-0.00190134180300781
17.44,2,2.01676905735145,-0.203952813928121,-0.166769876109468,-0.0018915284746739
17.46,2,2.01671040232426,-0.203927909160057,-0.167170748060015,-0.001939093160346
17.48,2,2.01671401500544,-0.203904620592655,-0.167170748060015,-0.00199749024258693
17.5,2,2.01664476546442,-0.203882291710119,-0.16757652826777,-0.00207196946424822
17.52,2,2.0166229145966,-0.203858193368062,-0.168029678488355,-0.00208159338577709
17.54,2,2.0165480250479,-0.203833177105677,-0.168029678488355,-0.00210845526841293
17.56,2,2.01652579557978,-0.203806041370443,-0.168343657208457,-0.00206906181321422
17.58,2,2.01647384524775,-0.203781184440425,-0.168757935530045,-0.00209047012865623
17.6,2,2.01643420210428,-0.203754015739528,-0.168757935530045,-0.00207536347073432
17.62,2,2.01638114356843,-0.203727290326803,-0.16921550660224,-0.00203213626320844
17.64,2,2.0163367854383,-0.203697719428071,-0.169503951441193,-0.00199170491874102
17.66,2,2.01632762314768,-0.20367122839134,-0.169503951441193,-0.00194777544792839
17.68,2,2.0162840436754,-0.203644648967581,-0.169963023971799,-0.00189908628653314
17.7,2,2.01626630950396,-0.203620342266305,-0.170379874222524,-0.00186360158506584
17.72,2,2.01620304437963,-0.203595423232455,-0.170379874222524,-0.00187300424695116
17.74,2,2.01620955045273,-0.203572851254554,-0.170727824830416,-0.00188038830564313
17.76,2,2.01615167439974,-0.203552727483641,-0.171165592854426,-0.00188423926686074
17.78,2,2.01613922689989,-0.203534316810015,-0.171165592854426,-0.00185243183741652
17.8,2,2.01606336189007,-0.203517152633332,-0.171526870199677,-0.00188500078780689
17.82,2,2.01604676910497,-0.203499862880332,-0.171964009415066,-0.00186626514176919
17.84,2,2.01599057301901,-0.203486511917557,-0.171964009415066,-0.00188563553192089
17.86,2,2.01596643804965,-0.203474238649876,-0.1723342647881,-0.00190687984124855
17.88,2,2.0159084025862,-0.203464927839841,-0.172691354631978,-0.00195939929511333
17.9,2,2.01586150745437,-0.203453590702051,-0.172691354631978,-0.00198451663648627
17.92,2,2.01583337251821,-0.203444885017179,-0.173152944134129,-0.0019997063945328
17.94,2,2.01579748894887,-0.203435774695382,-0.173463487642933,-0.00203266957261385
17.96,2,2.01578140955473,-0.203429137314653,-0.173463487642933,-0.00205553167824664
17.98,2,2.01571564016385,-0.203420271020786,-0.173853540982284,-0.00204954756624781
18,2,2.01570991246467,-0.203411916243231,-0.174272138960419,-0.0020292374254247
18.02,2,2.01565879911901,-0.203403633671234,-0.174272138960419,-0.00203152860225789
18.04,2,2.01565876465575,-0.20339734220031,-0.174612001550089,-0.00202308951754815
18.06,2,2.0155821709006,-0.203391409804626,-0.174996905208272,-0.00200758925508949
18.08,2,2.01556679089458,-0.203384412713674,-0.174996905208272,-0.00198408699848906
18.1,2,2.01550560274376,-0.203379027879329,-0.175359671514618,-0.00198160234412052
18.12,2,2.01549688664158,-0.203374892334643,-0.175798963525653,-0.00197857764230044
18.14,2,2.01543554636982,-0.203374049726155,-0.175798963525653,-0.00200937130385685
18.16,2,2.01539294803493,-0.20337109139775,-0.176128330568481,-0.00202169581232119
18.18,2,2.01534666971273,-0.203369774085261,-0.176466871600296,-0.00203636717360991
18.2,2,2.01531658885691,-0.20336745543999,-0.176466871600296,-0.00202282096222419
18.22,2,2.01529875560732,-0.203368564308293,-0.176951573060305,-0.00200320786610899
18.24,2,2.01524053996432,-0.20336796636965,-0.177215922190932,-0.00200601202092314
18.26,2,2.01522348983294,-0.203368359580979,-0.177215922190932,-0.00198985404518821
18.28,2,2.01517190182385,-0.203367808923002,-0.177573808997032,-0.00197077924910458
18.3,2,2.01518022682524,-0.203369977997794,-0.178048274410453,-0.00192330954796918
18.32,2,2.01511083330584,-0.203373533805214,-0.178048274410453,-0.00190098240611513
18.34,2,2.01509819249182,-0.203377765899081,-0.178317268895479,-0.00186453845219661
18.36,2,2.01502755615184,-0.203383154894919,-0.178697176759776,-0.0018199087664245
18.38,2,2.01502490117747,-0.20339026537649,-0.178697176759776,-0.00176167769928429
18.4,2,2.01496785568278,-0.203402618197427,-0.179122785183794,-0.00172363810296558
18.42,2,2.01494050502408,-0.20341652506937,-0.179474457626076,-0.00168398043767952
18.44,2,2.01488059713341,-0.203434649054339,-0.179474457626076,-0.00165634159708077
18.46,2,2.0148522379701,-0.203454064666187,-0.179821661699677,-0.00163742336334414
18.48,2,2.0148359974617,-0.20348049038338,-0.180216606642113,-0.00165741996161634
18.5,2,2.01479594423645,-0.203509238306393,-0.180216606642113,-0.00168099216023326
18.52,2,2.01477287506683,-0.20354239649119,-0.180652882908476,-0.00170178603791281
18.54,2,2.01471959091706,-0.203575887918752,-0.180930593295115,-0.00177137008385208
18.56,2,2.014732374213,-0.203613472111572,-0.180930593295115,-0.00183594391418561
18.58,2,2.0146760379581,-0.203653024959663,-0.181324602401824,-0.0019044724660747
18.6,2,2.0146635982107,-0.203693877328926,-0.181750745016247,-0.00193873173553727
18.62,2,2.01458311955754,-0.203733643459709,-0.181750745016247,-0.00198543955057557
18.64,2,2.0145788604503,-0.203772230192058,-0.181978951230044,-0.00201135091085427
18.66,2,2.01451533981475,-0.20381217341606,-0.18237706960185,-0.00207917838681643
18.68,2,2.01449267466698,-0.203850366162571,-0.18237706960185,-0.00211212983975153
18.7,2,2.01441417978248,-0.203887555484461,-0.182741144564269,-0.00217676036106978
18.72,2,2.01437262427201,-0.203919496188448,-0.182999193120472,-0.0022003404221081
18.74,2,2.01432942417124,-0.20395103383964,-0.182999193120472,-0.00221016217100354
18.76,2,2.01429134423677,-0.203978545827131,-0.183352558536173,-0.00218329737332194
18.78,2,2.01425544225967,-0.204005321939067,-0.183659510349423,-0.00213635668303835
18.8,2,2.01419123004969,-0.204026727925922,-0.183659510349423,-0.00210219126339314
18.82,2,2.01418466526567,-0.204047190112602,-0.184010431166405,-0.00203768353072073
18.84,2,2.01413804992174,-0.20406558157735,-0.184314156140625,-0.00197845873934134
18.86,2,2.01413761300787,-0.204085013756,-0.184314156140625,-0.00193255366343021
18.88,2,2.01405925706654,-0.204102883517976,-0.184630503986545,-0.00191770060116021
18.9,2,2.0140535612309,-0.204119252846914,-0.185028614474401,-0.0018876736955202
18.92,2,2.01399290580538,-0.204135920791701,-0.185028614474401,-0.0018963720299949
18.94,2,2.01399286725231,-0.204153010900733,-0.185296765834855,-0.00191252672963788
18.96,2,2.01392116560794,-0.204171185475421,-0.185643844499613,-0.00190883748560457
18.98,2,2.01388641271226,-0.204186167256898,-0.185643844499613,-0.00188441495747226
19,2,2.0138335495096,-0.204202167513715,-0.186008773707827,-0.00187244640101926
19.02,2,2.01381501655899,-0.204217175195048,-0.186303093064547,-0.00186173744243579
19.04,2,2.01378225657131,-0.204235039220254,-0.186303093064547,-0.00187659133438229
19.06,2,2.01372616400445,-0.204249673485178,-0.186637204642408,-0.00188208027082084
19.08,2,2.01370406349283,-0.204264628323226,-0.186945872353562,-0.00186678036119184
19.1,2,2.01366704210238,-0.20427779303663,-0.186945872353562,-0.00186653123168047
19.12,2,2.01367563101979,-0.2042932135582,-0.18732179187203,-0.00184292023209048
19.14,2,2.01360682928426,-0.204307667537171,-0.187610502010124,-0.00183112746028123
19.16,2,2.01359926063953,-0.204321602642232,-0.187610502010124,-0.00181563232071334
19.18,2,2.01353362834345,-0.204334619966381,-0.187899028721298,-0.00180279261889607
19.2,2,2.01354141536362,-0.204348127422019,-0.188330130939294,-0.00176157098509686
19.22,2,2.01347553882791,-0.204363694274875,-0.188330130939294,-0.00174185871720035
19.24,2,2.01345617690522,-0.204378206830766,-0.188566699141386,-0.00171627496177613
19.26,2,2.01338501680153,-0.204393801008695,-0.188868652666754,-0.00172616291426259
19.28,2,2.01336534601062,-0.204408251593743,-0.188868652666754,-0.00173400480747839
19.3,2,2.01333086478886,-0.204426299725962,-0.189294014771476,-0.00175042736071042
19.32,2,2.01328991080605,-0.2044427979236,-0.189520826728507,-0.00176620624059838
19.34,2,2.01324908175948,-0.204460208802093,-0.189520826728507,-0.00178631318890022
19.36,2,2.01319921588476,-0.20447443976745,-0.189822458440322,-0.00179716853718606
19.38,2,2.01320719547342,-0.204490651169255,-0.190187595792634,-0.00180228460163932
19.4,2,2.01315236097781,-0.204505873900205,-0.190187595792634,-0.00183954923936965
19.42,2,2.01313734911272,-0.204520846562814,-0.190470418767652,-0.00182716737899893
19.44,2,2.01306119298437,-0.204532780899328,-0.190722164694654,-0.00182542653091852
19.46,2,2.01307052317296,-0.204543939840974,-0.190722164694654,-0.00179108573590289
19.48,2,2.01300668087456,-0.204555930258464,-0.191041548924878,-0.00181694842070701
19.5,2,2.01299372818403,-0.204566738069373,-0.19140217353866,-0.00178709305582805
19.52,2,2.0129130278355,-0.204576715150278,-0.19140217353866,-0.00177418497126289
19.54,2,2.01289140750202,-0.204583895925102,-0.191594576571025,-0.00177209510842904
19.56,2,2.01284480131586,-0.204593330648423,-0.191916109775903,-0.00180644578102877
19.58,2,2.01281748466388,-0.204600934415802,-0.191916109775903,-0.00181870607993477
19.6,2,2.01276833357542,-0.204609169324015,-0.192294645363308,-0.00181950981635157
19.62,2,2.01271517727493,-0.204613009652206,-0.19245922900529,-0.00183213301751432
19.64,2,2.01270331670442,-0.204617565027222,-0.19245922900529,-0.00186538360921063
19.66,2,2.01266304350487,-0.204619664156853,-0.192791622222175,-0.00192518182009569
19.68,2,2.01265389494149,-0.204621657399211,-0.193124969444892,-0.00196725309743823
19.7,2,2.01257507244184,-0.20461905171946,-0.193124969444892,-0.00200952171153322
19.72,2,2.01257361439331,-0.204613299235172,-0.19332214503458,-0.0020239781795735
19.74,2,2.01250995565389,-0.204604565253455,-0.193615914073843,-0.00202405796159758
19.76,2,2.01251064060529,-0.204593706962585,-0.193615914073843,-0.00197330919470378
19.78,2,2.01242775880967,-0.204580566642432,-0.193892137371794,-0.0019639173655411
19.8,2,2.01240604558839,-0.204562501980876,-0.194176313312717,-0.00189865242703309
19.82,2,2.01234210701126,-0.204543779716217,-0.194176313312717,-0.00186687005457696
19.84,2,2.01233060534333,-0.204523080244352,-0.194419785821437,-0.00182886907730772
19.86,2,2.01227966753304,-0.204503819216258,-0.194689935860194,-0.00183173714719087
19.88,2,2.01222862327205,-0.204480168215506,-0.194689935860194,-0.00180636913550909
19.9,2,2.01219774003184,-0.204456757394431,-0.195017411700264,-0.00176671919971133
19.92,2,2.01216594988182,-0.204431493868974,-0.195223396919187,-0.00173927833650795
19.94,2,2.01216819171645,-0.204409012167457,-0.195223396919187,-0.00168623762429004
19.96,2,2.01210213742047,-0.204385099195096,-0.195527061505637,-0.00163925637733646
19.98,2,2.01209930259751,-0.204362151676189,-0.195847032273056,-0.0015757020011557
20,2,2.01204703180006,-0.204339834499963,-0.195847032273056,-0.00153510087910847
