time,vel_sp,vel,theta,acc_sp,acc
0,0,0,-1,-0.0523099344761155,0
0.02,0,-0.00116299738740164,-0.998861024451161,-0.0523099344761155,-0.0647439611973223
0.04,0,-0.00245875157512895,-0.99531840839595,-0.0422232819053798,-0.0647374248663298
0.06,0,-0.00374754867529325,-0.989368560760953,-0.0315668872665996,-0.0638845307687784
0.08,0,-0.00500939212999,-0.981023331017539,-0.0315668872665996,-0.0619059452571451
0.1,0,-0.00622170467450496,-0.970309860069844,-0.0207828352890864,-0.058881619920218
0.12,0,-0.00736671425580352,-0.95727003381866,-0.0100633546928669,-0.0551702738588227
0.14,0,-0.008435151436598,-0.941956949749178,-0.0100633546928669,-0.0512801455033841
0.16,0,-0.00942482408836526,-0.924430351398122,0.000465594798370588,-0.047280719962091
0.18,0,-0.0103366713959754,-0.904754716307552,0.0107473533576985,-0.0436203298656823
0.2,0,-0.0111776894890781,-0.882995928508615,0.0107473533576985,-0.0401336072594002
0.22,0,-0.0119515648261801,-0.859221283274274,0.0207737206959759,-0.0370507780181717
0.24,0,-0.0126675322866712,-0.833498228280632,0.0305479398707426,-0.0342601719037091
0.26,0,-0.0133286965541408,-0.805894536864027,0.0305479398707426,-0.0316742049140389
0.28,0,-0.0139414414497049,-0.776479328981635,0.0400711099362519,-0.0293655490483977
0.3,0,-0.0145080190525669,-0.745322557765509,0.0493385535432275,-0.027114454049324
0.32,0,-0.0150319859081276,-0.712496323762525,0.0493385535432275,-0.0250475963228324
0.34,0,-0.0155125030028533,-0.678074606118123,0.0583317007546162,-0.0227877479263058
0.36,0,-0.0159494131834842,-0.642135385010787,0.0670108491838181,-0.0206788552844511
0.38,0,-0.0163417222237834,-0.604759035781377,0.0670108491838181,-0.0182809087924945
0.4,0,-0.0166865951499322,-0.566030447691196,0.0753338960804302,-0.0159905527065218
0.42,0,-0.0169841413477311,-0.526037114931136,0.0832538142541331,-0.0134593636582609
0.44,0,-0.0172307605174029,-0.484870460527057,0.0832538142541331,-0.0109827962523159
0.46,0,-0.0174271477070259,-0.44262452602007,0.0907207162529992,-0.00833144512130609
0.48,0,-0.0175698083532284,-0.399396566397738,0.097690986653843,-0.00571637981705845
0.5,0,-0.0176604118540329,-0.355286064785162,0.097690986653843,-0.00300644195109735
0.52,0,-0.0176952901868276,-0.310394902235495,0.104127022637637,-0.000252106481996902
0.54,0,-0.0176763193877712,-0.264827208377566,0.10998798474163,0.00246943421578243
0.56,0,-0.0176014072258871,-0.218688393366333,0.10998798474163,0.00526086649100591
0.58,0,-0.0174724328800479,-0.172085598380052,0.115241681186984,0.0079293509481634
0.6,0,-0.0172887566528429,-0.125126287631782,0.119864765681447,0.0106965284130143
0.62,0,-0.0170512029890553,-0.0779193167853302,0.119864765681447,0.0133229696607366
0.64,0,-0.0167604440811459,-0.0305734612140944,0.12383200010234,0.0160091748828607
0.66,0,-0.0164173143703416,0.0168019099114439,0.127123975311281,0.0185481947864143
0.68,0,-0.0160229748209221,0.0640979700095104,0.127123975311281,0.0211388909849301
0.7,0,-0.015578132761138,0.11120578059628,0.129726346254799,0.0235580306260251
0.72,0,-0.0150852331957934,0.158017588319167,0.131629672313974,0.025981241496999
0.74,0,-0.0145447401265609,0.204426289618919,0.131629672313974,0.0282501191814012
0.76,0,-0.0139600042924427,0.250326343815673,0.132826710471236,0.0304626694558994
0.78,0,-0.0133311164724908,0.295613612366257,0.133316858364289,0.0325964253300011
0.8,0,-0.0126612246099206,0.340185468354429,0.133316858364289,0.0346067635768895
0.82,0,-0.0119509235191556,0.383941369546749,0.133101218464244,0.0365818667118334
0.84,0,-0.0112032379570783,0.426782527717683,0.13218210670117,0.0383628660121024
0.86,0,-0.010419709561445,0.468613016173015,0.13218210670117,0.0401399513882159
0.88,0,-0.00960245791268375,0.509338935100862,0.130568744910595,0.0417385400801363
0.9,0,-0.00875306591162505,0.548869372701468,0.128271133157622,0.0433425268462543
0.92,0,-0.00787335715511975,0.587115698913199,0.128271133157622,0.0447416976742723
0.94,0,-0.00696596628476518,0.623992792831405,0.125300515280298,0.0461354248469538
0.96,0,-0.00603200270125354,0.659418292713561,0.121672397394647,0.0473424466989249
0.98,0,-0.00507484540406183,0.693313541990248,0.121672397394647,0.0484949049007718
1,0,-0.00409508504575799,0.725603210654888,0.117408086625249,0.0495495481641961
1.02,0,-0.00309031963573128,0.756215134479778,0.112514576980846,0.0527476039352583
1.04,0,-0.00187290861053508,0.785044930047288,0.112514576980846,0.0733250382960673
1.06,0,-0.000223848694873021,0.811856021737199,0.106021943046149,0.0925227635756424
1.08,0,0.00183985144669754,0.836386519076925,0.0969373790126283,0.118049164642746
1.1,0,0.00440770388839792,0.858343191514383,0.0969373790126283,0.138367610797296
1.12,2,0.0073308212605266,0.877463177790374,2.12887271537569,0.157495500032053
1.14,2,0.0116555383794681,0.893388174576691,2.12095582900988,0.350262195448077
1.16,2,0.0224743629504632,0.90415792757485,2.12095582900988,0.735584469992358
1.18,2,0.0404495636946346,0.906082893468958,2.08378372375118,1.0940861743243
1.2,2,0.0670389931386259,0.895313169452083,2.00705829415772,1.55514151612654
1.22,2,0.101307079737712,0.867430846306448,2.00705829415772,1.86821620569246
1.24,2,0.142406362186043,0.818934311101583,1.88999176815793,2.2347133660155
1.26,2,0.189190605623022,0.746401681279361,1.73853961926638,2.41326814982035
1.28,2,0.239559299886059,0.647719013802882,1.73853961926638,2.61892942546543
1.3,2,0.292858663837201,0.521144194971715,1.56518329306211,2.6530430399179
1.32,2,0.346454205753748,0.366162421743839,1.38151193344914,2.69342338736183
1.34,2,0.400347502196455,0.182733987260693,1.38151193344914,2.6173475813268
1.36,2,0.451968594927153,-0.028307702471349,1.19622089485347,2.52041246889036
1.38,2,0.501824590788325,-0.265622742946117,1.01892819829074,2.37842736696111
1.4,2,0.547791511596645,-0.527455612177473,1.01892819829074,2.18922344473221
1.42,2,0.590659427602041,-0.811542843977509,0.856997329511059,2.0201668325997
1.44,2,0.629001876109227,-1.11563124851578,0.712854510646561,1.78212700681718
1.46,2,0.663547403861873,-1.43698126008105,0.712854510646561,1.61722647089822
1.48,2,0.693723344157117,-1.77318844394124,0.588747941560962,1.36689923801356
1.5,2,0.719913899172225,-2.12140347466414,0.486727024975421,1.22063467674201
1.52,2,0.742357705626958,-2.47929118704396,0.486727024975421,0.988875379124294
1.54,2,0.760978822758847,-2.84415749563686,0.405037435569904,0.863362777165693
1.56,2,0.776686651579123,-3.2138461934968,0.341664325844784,0.669601168492914
1.58,2,0.788942809683396,-3.58597992509988,0.341664325844784,0.562283196453802
1.6,2,0.799106017249531,-3.95861752924766,0.296447412305825,0.41568638920988
1.62,2,0.806325100929082,-4.32976828664293,0.26711538956738,0.320439910004712
1.64,2,0.81211609969254,-4.69770040749285,0.26711538956738,0.223823609786473
1.66,2,0.81555714277487,-5.06082014590938,0.250575630527669,0.135752612467483
1.68,2,0.818038400808574,-5.41758901633555,0.246278578253965,0.0847240544040499
1.7,2,0.818800008230406,-5.76677591101805,0.246278578253965,0.00251652720236723
1.72,2,0.818875855914476,-6.10702363226354,0.253000438365689,-0.0120465309249221
1.74,2,0.817864658139682,-6.43740336848058,0.267911637691858,-0.0861586981474407
1.76,2,0.816296860649149,-6.7567425383553,0.267911637691858,-0.0756714399764963
1.78,2,0.814238689965975,-7.06434598581039,0.290326251796707,-0.136850687115401
1.8,2,0.811672862321203,-7.35923856458895,0.320057531298852,-0.113177389665855
1.82,2,0.809133415038034,-7.64089202807417,0.320057531298852,-0.156072897960784
1.84,2,0.806127731454133,-7.90854451944433,0.354886635614891,-0.129300333406987
1.86,2,0.803548111464933,-8.16178107706742,0.39377816315973,-0.149089363165233
1.88,2,0.800590115671977,-8.40006439826903,0.39377816315973,-0.127258719345962
1.9,2,0.79831923832524,-8.62305485607975,0.437085579173786,-0.121519089896815
1.92,2,0.795825490156374,-8.83043795618918,0.483307214850917,-0.108217824142026
1.94,2,0.794146708273491,-9.02193149422975,0.483307214850917,-0.0785559016164097
1.96,2,0.79247803164563,-9.19742734464335,0.531023304086501,-0.0730963287363321
1.98,2,0.791628370868472,-9.35670485160979,0.580667660664531,-0.0236929623595702
2,2,0.791081798949526,-9.49983174082999,0.580667660664531,-0.0234671278331608
2.02,2,0.791271844057543,-9.62666010616328,0.631482840113602,0.0393285582886879
2.04,2,0.792070909293706,-9.73739347464868,0.681857519051783,0.0399057059773868
2.06,2,0.793490607608725,-9.83197929249335,0.681857519051783,0.107461866877138
2.08,2,0.795800411682121,-9.91071171180792,0.732010303537507,0.114876993188261
2.1,2,0.798613913403066,-9.97365514219612,0.781874078002314,0.17947520319628
2.12,2,0.802536132794167,-10.0211533678329,0.781874078002314,0.198127676317807
2.14,2,0.806887808333915,-10.0534012506249,0.829938662137418,0.254219362461626
2.16,2,0.812466767402661,-10.0707622768098,0.876060256142792,0.287210053817618
2.18,2,0.81847287083282,-10.0735653697767,0.876060256142792,0.330653056825884
2.2,2,0.825714651873712,-10.062173359505,0.920679469705313,0.378481310467812
2.22,2,0.83344490674042,-10.0370380493934,0.962667184744493,0.408957675346372
2.24,2,0.842327706187427,-9.99851732989079,0.962667184744493,0.468359458367397
2.26,2,0.851816271093468,-9.94716025265114,1.00151313144012,0.488846921249222
2.28,2,0.862296546528014,-9.88333123218865,1.03790546576283,0.554878829925109
2.3,2,0.873531194435136,-9.80764462288737,1.03790546576283,0.569024443333013
2.32,2,0.885557500782463,-9.72048156096655,1.07126116239856,0.635866006017767
2.34,2,0.898475522357385,-9.62248625574166,1.10080322819514,0.649027623321194
2.36,2,0.91199035650978,-9.51407873410091,1.10080322819514,0.710068375065675
2.38,2,0.926493604122249,-9.39589868608512,1.12720853651368,0.727366562223755
2.4,2,0.941432570572058,-9.26841842425362,1.15045713974762,0.777484230508982
2.42,2,0.957392079530386,-9.13224518256701,1.15045713974762,0.801784273357941
2.44,2,0.973682916083559,-8.9879083539794,1.16969494074995,0.838287739325113
2.46,2,0.990946801250491,-8.83596765017336,1.18538205846294,0.870828902582028
2.48,2,1.00850590207794,-8.677007292112,1.18538205846294,0.89288511692078
2.5,2,1.02691216221159,-8.51153482479931,1.19797625555431,0.932521456692584
2.52,2,1.04563616941174,-8.34017303817679,1.20675214722106,0.942015611355198
2.54,2,1.06502463903611,-8.16338330711791,1.20675214722106,0.985302457211261
2.56,2,1.08478687205213,-7.98180523686645,1.2118500699547,0.986088998731701
2.58,2,1.10500015796654,-7.79587020257845,1.21402951577179,1.02847751398157
2.6,2,1.12565556260698,-7.60620692411489,1.21402951577179,1.02507285378157
2.62,2,1.14654983433473,-7.41323253945935,1.21286228613477,1.06177000040182
2.64,2,1.16793510232203,-7.21753840408621,1.20817435237251,1.05871609274736
2.66,2,1.18937757228701,-7.01954405003358,1.20817435237251,1.08562867311199
2.68,2,1.21131677425693,-6.81978240250603,1.20080868360775,1.08633178422252
2.7,2,1.23318280992202,-6.61868494902729,1.19072395351429,1.100792922855
2.72,2,1.25549161234692,-6.4167131323053,1.19072395351429,1.10703105460705
2.74,2,1.2776594102933,-6.21431180755897,1.17753747745747,1.10836458059541
2.76,2,1.30015934314536,-6.01186741475182,1.16197807928196,1.11989315627726
2.78,2,1.32250570160597,-5.80983157280889,1.16197807928196,1.109708327845
2.8,2,1.34502880642426,-5.60852286898555,1.14438526239182,1.12431630016042
2.82,2,1.36743044358561,-5.40838439259131,1.12431393448339,1.10566207502533
2.84,2,1.3898278866952,-5.20968064217326,1.12431393448339,1.12042986514163
2.86,2,1.41215744641741,-5.01282915347707,1.10222916711629,1.09710436692754
2.88,2,1.43430128014588,-4.81805793497213,1.07875071811753,1.10808385955403
2.9,2,1.45642130429041,-4.62573835714921,1.07875071811753,1.08441177808288
2.92,2,1.47820153930965,-4.43607873692771,1.05352906673034,1.08801425454962
2.94,2,1.49997780555774,-4.24938772802596,1.02672474241146,1.06735090440455
2.96,2,1.52130275790421,-4.06586747245055,1.02672474241146,1.06169965184913
2.98,2,1.54260427539921,-3.88575582280197,0.99908408780225,1.04571194953245
3,2,1.56339799303371,-3.70925376356188,0.970466130075239,1.03002761244722
3.02,2,1.58409957904181,-3.5365270962109,0.970466130075239,1.0195301107601
3.04,2,1.60429185971309,-3.36777656999527,0.940752870408341,0.994499566773287
3.06,2,1.62429113368307,-3.20310177604153,0.910649145430672,0.988234070609438
3.08,2,1.64381951193591,-3.04269455080144,0.910649145430672,0.956617830351299
3.1,2,1.66303056683934,-2.88660212783932,0.880269756336079,0.951801590492743
3.12,2,1.68183261981123,-2.73499436309727,0.849321288209014,0.916835239215895
3.14,2,1.70018777761789,-2.58788325831187,0.849321288209014,0.910986195509257
3.16,2,1.71820210367804,-2.44540416386775,0.818331443572731,0.875894029816265
3.18,2,1.73566099841023,-2.30755040845547,0.787645427951928,0.86607713572337
3.2,2,1.75282578639702,-2.17441087083491,0.787645427951928,0.834268936532405
3.22,2,1.76936305798726,-2.04597469172371,0.756920825563725,0.818200384344295
3.24,2,1.78562751359755,-1.92227756474276,0.726418272680105,0.791730165981044
3.26,2,1.8012355528906,-1.80331420140658,0.726418272680105,0.768939742787806
3.28,2,1.81655599565948,-1.68906668072857,0.696626737899789,0.748060614040828
3.3,2,1.83123698860942,-1.57953625578711,0.667272679736757,0.718961819118154
3.32,2,1.84557968538802,-1.4746571685611,0.667272679736757,0.703443202285631
3.34,2,1.8593390148927,-1.37443436565127,0.638349343411655,0.669400976507214
3.36,2,1.87268926368556,-1.27876450499723,0.610378696469914,0.657382536869632
3.38,2,1.88553218630867,-1.1876478920449,0.610378696469914,0.621383790280676
3.4,2,1.8978902064579,-1.10095884088404,0.58324316713663,0.610098077603362
3.42,2,1.90982405105872,-1.01868156375965,0.556724163784425,0.574948715318749
3.44,2,1.92120341935615,-0.940683361295736,0.556724163784425,0.56237538909825
3.46,2,1.93223224683795,-0.866923796543769,0.531256302617149,0.530348420045072
3.48,2,1.94266416874584,-0.797275076977185,0.506911502508376,0.514380765646446
3.5,2,1.95279156274376,-0.7316648256809,0.506911502508376,0.48773887282145
3.52,2,1.96231523737,-0.669980123488053,0.483352191749738,0.467171559429137
3.54,2,1.97155293664239,-0.612115344987389,0.460838390459522,0.446563487879498
3.56,2,1.98021434531777,-0.557975368497619,0.460838390459522,0.421770811610604
3.58,2,1.98857862842822,-0.507425077904861,0.439595949274773,0.406567898274761
3.6,2,1.99642668904531,-0.460384670289873,0.419278916531933,0.378592560426714
3.62,2,2.00394097664748,-0.416697637554926,0.419278916531933,0.367721511651438
3.64,2,2.0110205887989,-0.376293572590369,0.3999387210922,0.33828791168535
3.66,2,2.01772235015356,-0.339005795752428,0.38188670734943,0.329722111815682
3.68,2,2.02407414885912,-0.304764683935393,0.38188670734943,0.301242743584404
3.7,2,2.03000538180597,-0.273404952513051,0.364866635160335,0.292532806886707
3.72,2,2.03566490013566,-0.244847612801236,0.348739986316671,0.267159203419169
3.74,2,2.04087695908339,-0.218939885928277,0.348739986316671,0.256770831256083
3.76,2,2.04587590708491,-0.195587695004652,0.333821441490683,0.235893497512005
3.78,2,2.05042570733072,-0.174657763113726,0.319998366282357,0.222591081463804
3.8,2,2.05479298492306,-0.156037381158421,0.319998366282357,0.207161104078001
3.82,2,2.05873800863886,-0.139616118822929,0.306997288556957,0.190576213872184
3.84,2,2.06250623296426,-0.125263921133112,0.295051040185165,0.180413320395126
3.86,2,2.0659037770372,-0.112892144449032,0.295051040185165,0.161348926579908
3.88,2,2.06910792912415,-0.102358803180338,0.284196807888792,0.155277661548516
3.9,2,2.07201196547884,-0.0935915712580121,0.274106301872355,0.135101879981392
3.92,2,2.07469246495604,-0.0864449702866461,0.274106301872355,0.131629029492746
3.94,2,2.07714919787726,-0.0808554347266039,0.264876378198062,0.111893590274332
3.96,2,2.07935035913577,-0.0766823383630704,0.25666573980098,0.109123772278085
3.98,2,2.08139773150117,-0.0738625373184154,0.25666573980098,0.091752117120622
4,2,2.08316851512023,-0.0722694200451259,0.249180999965787,0.0879829169187629
4.02,2,2.08484201312646,-0.0718339211571237,0.242367588789497,0.0743430205679527
4.04,2,2.08623404849069,-0.0724497885447394,0.242367588789497,0.0684365011648526
4.06,2,2.08756138603686,-0.0740374762204436,0.23644062702361,0.0591131026553387
4.08,2,2.08862425327586,-0.0765130370811539,0.23120583468328,0.0506403436357377
4.1,2,2.08963234568518,-0.0797861910433868,0.23120583468328,0.0457686957012543
4.12,2,2.09041495114424,-0.0837952120498608,0.226484534327466,0.0350092608011487
4.14,2,2.09113317630042,-0.088442317361128,0.222476082930615,0.0338535665309959
4.16,2,2.09167986475592,-0.093684001676428,0.222476082930615,0.0217895300209828
4.18,2,2.09213730525986,-0.0994203747625289,0.219107380616721,0.0229020174192828
4.2,2,2.09248289869826,-0.105618634048877,0.216131998414999,0.0108349396421603
4.22,2,2.09271038212325,-0.112183397973938,0.216131998414999,0.0127913073473797
4.24,2,2.09288466389863,-0.119085951858882,0.213682934391877,0.00219895615736401
4.26,2,2.09291785430585,-0.126242900510916,0.211806036797219,0.00348068693852697
4.28,2,2.09294271866712,-0.133622889078632,0.211806036797219,-0.00448905737097744
4.3,2,2.09281596532601,-0.141159038182177,0.210245706406836,-0.00496076490858042
4.32,2,2.09270956757642,-0.148813251149077,0.209032256946103,-0.00952687835435955
4.34,2,2.09245905397516,-0.156538388638444,0.209032256946103,-0.0122206194831342
4.36,2,2.0922379186968,-0.164288563864376,0.208294539806367,-0.0133234117258641
4.38,2,2.09189668752334,-0.172035704901695,0.207822588170719,-0.0181717339624626
4.4,2,2.09157516340727,-0.179727266590507,0.207822588170719,-0.0163398029887087
4.42,2,2.09117043872447,-0.187350636952118,0.207543766941268,-0.0226999471848092
4.44,2,2.09076375992857,-0.194850406683851,0.207622326106557,-0.0188738693426984
4.46,2,2.09031806149636,-0.202224503124791,0.207622326106557,-0.0257338650000106
4.48,2,2.08984252560073,-0.209419696249756,0.207938748761001,-0.0211616067796809
4.5,2,2.08937272828498,-0.216438305712575,0.208336799525491,-0.0272493346656188
4.52,2,2.0888487834417,-0.22323554836081,0.208336799525491,-0.0231855541530438
4.54,2,2.08836688202623,-0.229812477882365,0.208960583115195,-0.0274392594774238
4.56,2,2.08781663399255,-0.236137365350508,0.209783817160874,-0.0248232419740857
4.58,2,2.08732975192755,-0.242205958958274,0.209783817160874,-0.0267673794504374
4.6,2,2.08677084006743,-0.248000453827575,0.210620889378308,-0.0261514633685352
4.62,2,2.08628185828773,-0.25350899817223,0.211556889558437,-0.0254904010216622
4.64,2,2.08573244457244,-0.258728495461305,0.211556889558437,-0.0269055573551788
4.66,2,2.08524448775969,-0.263640230351509,0.212660147893373,-0.0239216697019893
4.68,2,2.08471838146508,-0.268253442618279,0.213752926470448,-0.0270725235048094
4.7,2,2.08423144971966,-0.272543991034369,0.213752926470448,-0.0225207725975901
4.72,2,2.08373752904503,-0.27652900089495,0.214846828257509,-0.0264337248061082
4.74,2,2.08325756808794,-0.2801843188981,0.21606222997746,-0.0212063359970903
4.76,2,2.08280319837022,-0.283530801080595,0.21606222997746,-0.0250042401816216
4.78,2,2.08233781398591,-0.286548355424394,0.217269133496876,-0.0200648826028496
4.8,2,2.08192631126842,-0.289256964063241,0.218394036078008,-0.0228046923057221
4.82,2,2.08148489948672,-0.291644763593171,0.218394036078008,-0.0190996421978715
4.84,2,2.08111496415593,-0.293726488946673,0.219572974215726,-0.0201258846453842
4.86,2,2.0807067195012,-0.295500732045884,0.220749251605593,-0.0181796296296118
4.88,2,2.08037487927025,-0.2969749119395,0.220749251605593,-0.0172344864175994
4.9,2,2.08000895582755,-0.298158542336278,0.221802365095445,-0.0171041348449095
4.92,2,2.07971177571704,-0.299052007197719,0.222839179960945,-0.0143930314391825
4.94,2,2.07939289750699,-0.299673774608401,0.222839179960945,-0.0159110363169094
4.96,2,2.07912414533107,-0.30001800841558,0.223885675804221,-0.0119077062298938
4.98,2,2.07885387535677,-0.300109036237684,0.224810130027432,-0.0144665884460689
5,2,2.07861068672058,-0.299938064260402,0.224810130027432,-0.00981080006661895
5.02,2,2.07839034419181,-0.299532291359775,0.225665784291828,-0.0125697863649418
5.04,2,2.07817364878609,-0.298884260921948,0.226531057066247,-0.00810864007071159
5.06,2,2.07800106806453,-0.298019826843671,0.226531057066247,-0.0103657313686974
5.08,2,2.07781188537691,-0.296935689232646,0.227290131671336,-0.00683222959434016
5.1,2,2.07768178135032,-0.295652938874454,0.227934956512907,-0.0079189912527002
5.12,2,2.07752402573052,-0.294175265664936,0.227934956512907,-0.00583632882809346
5.14,2,2.07743015514947,-0.292516919160604,0.228575051546774,-0.00542762716966877
5.16,2,2.07730701723273,-0.290689388240989,0.229138048713661,-0.00494336965034556
5.18,2,2.07724283098835,-0.288699873184824,0.229138048713661,-0.00306757690270845
5.2,2,2.0771570489966,-0.286566912649457,0.229562573365976,-0.00405774665495681
5.22,2,2.07711579761794,-0.284291408990419,0.22995720964408,-0.00107074526546875
5.24,2,2.07706574486619,-0.281896421565835,0.22995720964408,-0.00321171669159053
5.26,2,2.07703950760092,-0.279378052119133,0.230315504701183,0.00041083116259863
5.28,2,2.07702333885446,-0.276761356387309,0.230543234748317,-0.00215917866984079
5.3,2,2.07700918769647,-0.274041519820931,0.230543234748317,0.00137453613313229
5.32,2,2.07702249605995,-0.271242057375999,0.230721710184994,-0.00093395634703817
5.34,2,2.07701962449354,-0.268360357494539,0.230890373082025,0.00191905064012826
5.36,2,2.07705772335918,-0.265415877002241,0.230890373082025,0.000462980439951778
5.38,2,2.07706755730585,-0.262410832374758,0.230949121154783,0.00214147980153771
5.4,2,2.07712375508538,-0.259358503878442,0.23093179573059,0.0018773140165858
5.42,2,2.07714849977066,-0.256266966714954,0.23093179573059,0.00219952240722752
5.44,2,2.07721665722749,-0.253142948599247,0.23091366391791,0.00319539291677407
5.46,2,2.07725862689152,-0.250000344339744,0.230814971155395,0.00227082584905857
5.48,2,2.07733365245488,-0.246840256615237,0.230814971155395,0.00428756262174579
5.5,2,2.07739381871077,-0.243680695294201,0.23062035603691,0.00241759558835239
5.52,2,2.07747119918259,-0.240518694046262,0.230420297759436,0.00499591301607735
5.54,2,2.07754748954627,-0.237373667209979,0.230420297759436,0.00261037277438334
5.56,2,2.07762230471842,-0.234240475016025,0.230179260434185,0.00522546229038401
5.58,2,2.07771054402647,-0.231137377821489,0.229846377505727,0.00293900485939051
5.6,2,2.07778127818236,-0.228060130964754,0.229846377505727,0.00505338053661195
5.62,2,2.07787604021547,-0.225023303816668,0.229504684110165,0.00329501140116883
5.64,2,2.07794169795512,-0.222025203645687,0.22916104864158,0.00452846479775976
5.66,2,2.07803748979604,-0.219075261783431,0.22916104864158,0.00371230654600695
5.68,2,2.07810005983297,-0.216176250884515,0.228742223768315,0.00385117243659946
5.7,2,2.0781914323456,-0.213331857457598,0.228302009396031,0.00402314990801044
5.72,2,2.07825128927279,-0.210548951199447,0.228302009396031,0.00305139408104935
5.74,2,2.07833203634269,-0.207825526164809,0.227884893950118,0.00406798226069421
5.76,2,2.07838848045921,-0.205171418044865,0.227424356391861,0.00222128381941396
5.78,2,2.07845349418032,-0.202580382346777,0.227424356391861,0.00385243844533599
5.8,2,2.07850700065034,-0.200064185173407,0.22693573287981,0.00159845343172512
5.82,2,2.07855592496767,-0.197615140213524,0.226480551155819,0.00340905304701639
5.84,2,2.07860606843706,-0.195244887370577,0.226480551155819,0.001187272712486
5.86,2,2.07863963156839,-0.192946286600841,0.226007509699492,0.00275849965284393
5.88,2,2.0786852322106,-0.190728958208753,0.225493794595223,0.000960095742141305
5.9,2,2.07870480950358,-0.188588054619796,0.225493794595223,0.00192446975366231
5.92,2,2.07874285951762,-0.186529507738705,0.225006490564375,0.000810560339001932
5.94,2,2.07874955611405,-0.184551567282067,0.224528826214528,0.000899107868496042
5.96,2,2.07877577771048,-0.182655325372824,0.224528826214528,0.000672840278096665
5.98,2,2.07877255717203,-0.180842979852742,0.224013788443921,-8.01056155284974e-05
6,2,2.07878474912175,-0.179111504381195,0.223515217236127,0.000458132735953191
6.02,2,2.07877276553857,-0.17746605780943,0.223515217236127,-0.00105697455214213
6.04,2,2.07876702033411,-0.175899793767472,0.223048463894151,2.25391221084651e-05
6.06,2,2.07874604400165,-0.174419448785475,0.222559707905242,-0.0019572992425147
6.08,2,2.07872016867831,-0.173016042114424,0.222559707905242,-0.000624449333399077
6.1,2,2.07869026537265,-0.171696596015384,0.222080598456878,-0.00264906536039312
6.12,2,2.07864555370945,-0.170452308264833,0.221646756971945,-0.00140571908931598
6.14,2,2.07860706935708,-0.169289104791267,0.221646756971945,-0.00308974484283204
6.16,2,2.07854634709733,-0.168200213335461,0.221204255025015,-0.00227816374089476
6.18,2,2.07849789892459,-0.167188898981741,0.220755064931809,-0.00343911870422582
6.2,2,2.07842244034823,-0.166250818388739,0.220755064931809,-0.00325836622202344
6.22,2,2.07836146594987,-0.165385723951346,0.220350599890528,-0.00375660999061096
6.24,2,2.0782726320429,-0.164592142884632,0.219961526885933,-0.0043136989117726
6.26,2,2.07819628076746,-0.163865977861224,0.219961526885933,-0.00407901397526419
6.28,2,2.07809740673242,-0.163208973679846,0.219561759224826,-0.00524292767988271
6.3,2,2.07800461589018,-0.162614266857885,0.219201307883711,-0.00448400097968064
6.32,2,2.07789764727879,-0.162085572078348,0.219201307883711,-0.00598692663709146
6.34,2,2.07778882140076,-0.161614743831473,0.218869128247776,-0.00501522685507119
6.36,2,2.07767340876981,-0.161205741459515,0.218530100802809,-0.00666164238721081
6.38,2,2.07754717439633,-0.160849816964615,0.218530100802809,-0.00573225909844223
6.4,2,2.0774219293106,-0.160549964293476,0.218221117260799,-0.00720980226098544
6.42,2,2.07727993208108,-0.160298503744154,0.217956190628578,-0.0064979005359236
6.44,2,2.0771452891822,-0.160097039928945,0.217956190628578,-0.00759947392721157
6.46,2,2.07698994546869,-0.159939931157494,0.217693369866576,-0.00728299491649151
6.48,2,2.0768459733411,-0.159826736729836,0.217442377067333,-0.00781601726064141
6.5,2,2.0766813147205,-0.15975478143181,0.217442377067333,-0.00798144305798537
6.52,2,2.07652869987691,-0.159721487775261,0.217231820738862,-0.00791983373842988
6.54,2,2.07635789015183,-0.159727011469877,0.217027171367447,-0.00862237711151847
6.56,2,2.07619508025753,-0.159766222880146,0.217027171367447,-0.00811093175273692
6.58,2,2.07601924030456,-0.159841024542465,0.216821825743103,-0.00914911953349993
6.6,2,2.07584696743742,-0.15994504753209,0.216649960842471,-0.00826520360563698
6.62,2,2.07566908994365,-0.160081839378768,0.216649960842471,-0.00948437520382653
6.64,2,2.07548831269005,-0.160244577362722,0.216493691394101,-0.00848104582387969
6.66,2,2.07530984362029,-0.160437078653652,0.216324782120073,-0.00963171574673533
6.68,2,2.07512227111463,-0.160653300271887,0.216324782120073,-0.00874277813025045
6.7,2,2.07494349536071,-0.160896223792874,0.216175279920764,-0.0096294894381375
6.72,2,2.07475060830234,-0.161161318810264,0.216048229918968,-0.00912436325873651
6.74,2,2.07456910518937,-0.161449297123014,0.216048229918968,-0.00961812369850906
6.76,2,2.07437100247784,-0.161757389856639,0.215912565877656,-0.00963016954775175
6.78,2,2.0741833722015,-0.162083436079568,0.215793974359241,-0.00969822890614481
6.8,2,2.07397988967628,-0.16242635553397,0.215793974359241,-0.010149570191754
6.82,2,2.07378545991497,-0.162781989411978,0.215711475394504,-0.00972315524862655
6.84,2,2.07357987556365,-0.163151673751927,0.215629198194595,-0.0105268049904124
6.86,2,2.07337884670676,-0.163529922370333,0.215629198194595,-0.00977124206556996
6.88,2,2.07317311046495,-0.163919497249199,0.215550214931766,-0.0107116068182995
6.9,2,2.07296685371059,-0.164314747670283,0.215499682614882,-0.00988473105946871
6.92,2,2.07276072021169,-0.164718385971027,0.215499682614882,-0.0108755523535128
6.94,2,2.07254862576228,-0.165124648889718,0.215459065052783,-0.0100736508053487
6.96,2,2.07234256398344,-0.165535965975508,0.215412949099909,-0.0108728829832809
6.98,2,2.07212681700409,-0.165947924966224,0.215412949099909,-0.0102786601282435
7,2,2.07192090450688,-0.166361852878101,0.215389035279382,-0.0107976633708469
7.02,2,2.07170223226903,-0.166774782319744,0.215382292944663,-0.0105549730994432
7.04,2,2.07149569556457,-0.167186292108467,0.215382292944663,-0.010605185037857
7.06,2,2.07127759894249,-0.167596031820906,0.215363748931277,-0.0106961042869999
7.08,2,2.07107164795457,-0.168002370883663,0.215352680800149,-0.0103224466542509
7.1,2,2.07085677789741,-0.168407082418989,0.215352680800149,-0.0107988614399215
7.12,2,2.07065015894349,-0.168806802159869,0.215357966864992,-0.0101128555913451
7.14,2,2.07043910120393,-0.169204572453973,0.215350609980548,-0.0108441380549927
7.16,2,2.07023072911466,-0.16959600593637,0.215350609980548,-0.0100205845036455
7.18,2,2.07002333748296,-0.16998446434749,0.215344184582233,-0.0107782475202592
7.2,2,2.06981433313984,-0.170365881965373,0.215355277211902,-0.00995376528716163
7.22,2,2.06961078760034,-0.17074346002325,0.215355277211902,-0.0106620554902542
7.24,2,2.06940007107881,-0.171113447831735,0.215362123951856,-0.0100617889316694
7.26,2,2.06919807899485,-0.171477561082461,0.215364466999435,-0.0105118283661005
7.28,2,2.06898655268542,-0.171833436754083,0.215364466999435,-0.0102139057374358
7.3,2,2.0687856455812,-0.172181319719909,0.215386662172244,-0.0102858152997272
7.32,2,2.06857544806773,-0.172520857239949,0.215411490575836,-0.0103266490294178
7.34,2,2.06837479192814,-0.172850803453381,0.215411490575836,-0.0100826843824363
7.36,2,2.06816679436041,-0.173172238183295,0.21542648279389,-0.0104143717583642
7.38,2,2.06796604402907,-0.173482692004759,0.215453331557607,-0.00988306140732768
7.4,2,2.06776148816928,-0.173784584990405,0.215453331557607,-0.0104237259936301
7.42,2,2.06756024139178,-0.174074726961183,0.215488616344807,-0.0097483394519557
7.44,2,2.06735918810188,-0.17435603184097,0.215512559783042,-0.0103933037708382
7.46,2,2.06715668066875,-0.174624948961981,0.215512559783042,-0.00972773246594734
7.48,2,2.06695851196337,-0.174884082544119,0.215543183013196,-0.0102704641305683
7.5,2,2.0667562351215,-0.175130804341264,0.215585405129938,-0.00965494956049866
7.52,2,2.06656327863776,-0.175367713238325,0.215585405129938,-0.00995958212009156
7.54,2,2.06636342820499,-0.175593697205393,0.215612317145571,-0.00965988426739784
7.56,2,2.06617311894556,-0.175809557237359,0.21563571038049,-0.00971371264930723
7.58,2,2.06597524347355,-0.176015276177816,0.21563571038049,-0.00971155008743513
7.6,2,2.06578698366433,-0.176210315513276,0.215671756727438,-0.00940066581563152
7.62,2,2.06559369749866,-0.176396580405485,0.215697479258517,-0.00967500746740985
7.64,2,2.06540725683438,-0.176572430566681,0.215697479258517,-0.00914095567004288
7.66,2,2.06521895152787,-0.176740719802031,0.215712074174537,-0.00958888554006367
7.68,2,2.06503321016903,-0.176899145187412,0.215735729925848,-0.00897903368767612
7.7,2,2.06484923886117,-0.177050646945532,0.215735729925848,-0.0094701178633464
7.72,2,2.0646644293971,-0.177192935127657,0.215756227280388,-0.008870394224456
7.74,2,2.06448482665104,-0.177328732402897,0.215763636945819,-0.00927893293072599
7.76,2,2.06430166707635,-0.177456415941192,0.215763636945819,-0.00878479732629175
7.78,2,2.06412597359496,-0.177578153312568,0.21577468325282,-0.00905415817799815
7.8,2,2.06394423186653,-0.1776930186612,0.215788771233442,-0.00878841272308729
7.82,2,2.06377157925547,-0.177801973059904,0.215788771233442,-0.00878297753909338
7.84,2,2.06359299569173,-0.177905532526362,0.215787696575263,-0.0087793109570042
7.86,2,2.06342263510677,-0.178003451678694,0.215785989936431,-0.00851372129042987
7.88,2,2.06324787114322,-0.17809751228114,0.215785989936431,-0.00873436919834861
7.9,2,2.06307913335818,-0.178186533629981,0.215788465642631,-0.00830585857971168
7.92,2,2.06290736349439,-0.178272779930857,0.215780737163484,-0.00875558247288954
7.94,2,2.06273816856041,-0.178353882659771,0.215780737163484,-0.00817519787075162
7.96,2,2.06257027849806,-0.178432738925405,0.215769117708924,-0.0086595732599984
7.98,2,2.06240107497146,-0.178507109845404,0.215766530075442,-0.00812463670068658
8,2,2.062236028617,-0.178579404875959,0.215766530075442,-0.00855390411143629
8.02,2,2.06740851644751,-0.179954318025977,0.210370219417784,0.306095679547694
8.04,2,2.07321687055188,-0.184540646621284,0.189839597738945,0.305397358633142
8.06,2,2.07906300635861,-0.192347062998604,0.189839597738945,0.303568419023778
8.08,2,2.08491196270714,-0.203343852488437,0.168904309106069,0.297981857531322
8.1,2,2.09067320625916,-0.217464336172715,0.14799871244617,0.289785577980333
8.12,2,2.09628443861552,-0.234606070436199,0.14799871244617,0.278255280808688
8.14,2,2.10166032504945,-0.254630133339516,0.127672213846811,0.263773637938463
8.16,2,2.10675598207569,-0.27736329009158,0.108461876547404,0.247610098123001
8.18,2,2.11151227016622,-0.302607565742255,0.108461876547404,0.229132883504574
8.2,2,2.11590924929334,-0.330139625220939,0.090778311788933,0.210300800430445
8.22,2,2.11991889103371,-0.359724740117555,0.0748774300572153,0.190101877859505
8.24,2,2.12353697587846,-0.391113627967145,0.0748774300572153,0.170850915240871
8.26,2,2.12676492834687,-0.424057480295691,0.0609188410526459,0.150761292687312
8.28,2,2.12960854417406,-0.458302117878236,0.0489623781450987,0.132558587424307
8.3,2,2.1320888780222,-0.493602246206762,0.0489623781450987,0.114171246795079
8.32,2,2.13421688001005,-0.529714616943376,0.0389579689337629,0.0977326382521626
8.34,2,2.13602603184354,-0.566408442619198,0.0308170897803478,0.0818083776305782
8.36,2,2.13752663678131,-0.603460770204049,0.0308170897803478,0.0676199143351811
8.38,2,2.13875894588916,-0.640661301336844,0.0244370194797015,0.0543476249581708
8.4,2,2.13973189397855,-0.677811605297537,0.0196701266672798,0.0424490103926766
8.42,2,2.1404857145324,-0.714724244296887,0.0196701266672798,0.0318927295936788
8.44,2,2.14102988580385,-0.751226956802325,0.0163638353723097,0.0221817243710433
8.46,2,2.14140396726304,-0.787155188953031,0.0143994448627505,0.0141381644048272
8.48,2,2.14164662261083,-0.82230719806786,0.0143994448627505,0.00612411963943098
8.5,2,2.1417706746652,-0.856444385240475,0.0140362873128129,-6.91844727488235e-05
8.52,2,2.14176959026875,-0.889385312789507,0.0149388610329314,-0.00593825357236069
8.54,2,2.14165468392186,-0.92100673426967,0.0149388610329314,-0.0106252497454324
8.56,2,2.1414440851884,-0.951211819944422,0.0168945001864858,-0.0144714231789374
8.58,2,2.14115976936064,-0.979925363923192,0.0196199433946944,-0.0173951205542952
8.6,2,2.14081917765451,-1.00707674645459,0.0196199433946944,-0.019373625652367
8.62,2,2.14044398608155,-1.03262267980012,0.022858527388802,-0.0203401143821875
8.64,2,2.14005655608824,-1.05651388019041,0.0267181443746979,-0.0202795477566498
8.66,2,2.13967580984193,-1.07872509940712,0.0267181443746979,-0.0194167766987058
8.68,2,2.13931817660905,-1.09922663241747,0.0307411354336949,-0.0178119539110277
8.7,2,2.13899361735706,-1.11801722821751,0.035016344479668,-0.0154358295943178
8.72,2,2.13872532516669,-1.13509367695183,0.035016344479668,-0.0123939625546195
8.74,2,2.13851882854575,-1.15046660172279,0.0394042110866627,-0.00889717367974621
8.76,2,2.13838941733117,-1.16414336963012,0.0436417177712303,-0.0051175651296714
8.78,2,2.13833274728586,-1.17614356705446,0.0436417177712303,-0.000941670410984397
8.8,2,2.13836872911133,-1.18649590100115,0.0479508004822849,0.00353962868958989
8.82,2,2.1384903211847,-1.19523013324732,0.0519382734242528,0.00803256155774262
8.84,2,2.13870910358697,-1.20238118988335,0.0519382734242528,0.0125927758433027
8.86,2,2.13901423294577,-1.20797666878124,0.0558126205568578,0.0172336532763729
8.88,2,2.13941210891203,-1.21206540383294,0.0595110714223475,0.0219086260928976
8.9,2,2.13989594031798,-1.21468183902701,0.0595110714223475,0.0263957176736386
8.92,2,2.14046521580651,-1.21587276679847,0.0627914069399687,0.0307472778564186
8.94,2,2.14112035319784,-1.21566758754322,0.0660226130488284,0.035108352932784
8.96,2,2.14184983997258,-1.21412092258793,0.0660226130488284,0.0393093079542071
8.98,2,2.14266229737593,-1.21127352949033,0.0688441869315965,0.0433638348549337
9,2,2.14354856874534,-1.2071779602033,0.0713947655405586,0.047298665866358
9.02,2,2.14452669229229,-1.20187415132733,0.0713947655405586,0.0511316035644843
9.04,2,2.14556958613713,-1.19540999627723,0.0737831255351236,0.0547936125156257
9.06,2,2.14669592984109,-1.18783407654325,0.0757273336710313,0.0582438463827736
9.08,2,2.14788207667383,-1.1791934721466,0.0757273336710313,0.0616034309162325
9.1,2,2.14915010052349,-1.16954266376564,0.0775155697287767,0.064869693258928
9.12,2,2.15047515430246,-1.15892199356063,0.0789538162733403,0.0679565784040142
9.14,2,2.15186665398761,-1.14738841072561,0.0789538162733403,0.0709503629235409
9.16,2,2.15330775781459,-1.1349846256989,0.0800801296646396,0.0738280023531483
9.18,2,2.15480025012669,-1.12177266104523,0.080989576810471,0.0765835290269428
9.2,2,2.15634721606862,-1.10778880319316,0.080989576810471,0.0791592264992749
9.22,2,2.15793512515625,-1.09308981119618,0.0814786528438675,0.0815557602087053
9.24,2,2.15957023016766,-1.07771750562621,0.0817861110981118,0.0838356883075149
9.26,2,2.16123192167053,-1.06173244915853,0.0817861110981118,0.085987978238985
9.28,2,2.1629551267112,-1.04517842608627,0.0817499813805612,0.0880135989163887
9.3,2,2.16470903502395,-1.02810665846218,0.0813815991844121,0.0898907785638295
9.32,2,2.16651706956725,-1.0105615487483,0.0813815991844121,0.0915711097336351
9.34,2,2.16834181181469,-0.992591941797179,0.080832294235142,0.0930804454155568
9.36,2,2.17021581364689,-0.974248143723479,0.0798993140490356,0.0944281406441479
9.38,2,2.17210609553374,-0.955573425736614,0.0798993140490356,0.0955885453194136
9.4,2,2.17403390376382,-0.936615058071067,0.078765428549179,0.096554528227747
9.42,2,2.17596821465897,-0.917409325224545,0.0773871365010113,0.0973198958999629
9.44,2,2.17791880068447,-0.898006873775496,0.0773871365010113,0.0979504664829257
9.46,2,2.17987032797331,-0.878441288657929,0.0757260029863726,0.0983756347724252
9.48,2,2.18182719017783,-0.858757195228516,0.0739208220749595,0.0985845969566401
9.5,2,2.18378794654797,-0.838981492507129,0.0739208220749595,0.0986487431639887
9.52,2,2.1857346326392,-0.819158225733298,0.0718497577667782,0.0986061204396342
9.54,2,2.18768336035914,-0.799318095700875,0.0696317671708441,0.0983930041354628
9.56,2,2.18961987194933,-0.779500366144231,0.0696317671708441,0.098006381067377
9.58,2,2.19156856053027,-0.759731271165235,0.0672539952562865,0.0975284596696197
9.6,2,2.19349449305675,-0.740041535443145,0.0646748661288095,0.0969674364663889
9.62,2,2.19542299490454,-0.720461013716757,0.0646748661288095,0.0962051330897277
9.64,2,2.19732410214794,-0.701017971735424,0.0620157763410454,0.0952492114802705
9.66,2,2.19922346379602,-0.681740754638529,0.0591861598136014,0.0942725636345668
9.68,2,2.2010951976943,-0.662647530343725,0.0591861598136014,0.0931653092779943
9.7,2,2.20294993958366,-0.643766128335332,0.0562653177345273,0.0918917460234367
9.72,2,2.20476917610938,-0.625113506929376,0.0532755226285696,0.0905029486778469
9.74,2,2.20655738385628,-0.606715864582661,0.0532755226285696,0.0891140730590839
9.76,2,2.20831962445461,-0.588583804384025,0.0501667396069347,0.0876606856277297
9.78,2,2.21004511747918,-0.570739472157038,0.047034252574741,0.0860149291678762
9.8,2,2.21173868501269,-0.553193855074892,0.047034252574741,0.0842999269412226
9.82,2,2.21338635443839,-0.535966946661583,0.0438228291405352,0.0826149206171405
9.84,2,2.21501505133732,-0.519070122361984,0.0405745573867471,0.0808555349281826
9.86,2,2.21660038948678,-0.502517506099604,0.0405745573867471,0.0789518796338359
9.88,2,2.21816069117977,-0.486317436138265,0.0373203929515351,0.0769892325999238
9.9,2,2.21967117354412,-0.470480055131587,0.0340133270566609,0.075064669811215
9.92,2,2.22115544352158,-0.455017133377274,0.0340133270566609,0.0730219496135914
9.94,2,2.22259099748019,-0.439934146485194,0.0307384078555399,0.0708442323506277
9.96,2,2.22399339276645,-0.425237901108251,0.0274581015549544,0.0687291355543487
9.98,2,2.22534698574316,-0.410929988643275,0.0274581015549544,0.0666156462571256
10,2,2.22665860469584,-0.397020437178958,0.024186580563358,0.0644515432267972
10.02,2,2.22792237626814,-0.383508835854425,0.0209685138723154,0.0621952274294222
10.04,2,2.22914133969703,-0.37039981279528,0.0209685138723154,0.059988576345381
10.06,2,2.23031859113277,-0.357689801977988,0.01775596221798,0.0578117536315126
10.08,2,2.23144495026642,-0.34538418509697,0.0146087474630739,0.0555388986110817
10.1,2,2.23252984458952,-0.333480462163917,0.0146087474630739,0.0532726536631778
10.12,2,2.23356677428466,-0.321980419667407,0.0115032820107594,0.0510382282170213
10.14,2,2.2345676351354,-0.310880108223812,0.00844540058346051,0.0488420626251912
10.16,2,2.23551920847713,-0.300177832257274,0.00844540058346051,0.0466055859749801
10.18,2,2.23643179807373,-0.289870758615371,0.00547495522892543,0.0443490354567464
10.2,2,2.23729642043843,-0.279955716501066,0.00253390407235131,0.0422469445496646
10.22,2,2.23812414012566,-0.270430646342261,0.00253390407235131,0.0401406765177988
10.24,2,2.23890640434385,-0.261289068333735,-0.000313023043577683,0.0379656741980369
10.26,2,2.23964719498223,-0.252528011310982,-0.00309191025338054,0.035814842334554
10.28,2,2.24034357001798,-0.244140549801563,-0.00309191025338054,0.0337726992690301
10.3,2,2.24099982759774,-0.236124081994309,-0.00582004953486636,0.0317389008754945
10.32,2,2.24161518164118,-0.228469204667857,-0.00842968419823452,0.0296332162753127
10.34,2,2.24218839379213,-0.221170546277794,-0.00842968419823452,0.0276048790508025
10.36,2,2.24272362423471,-0.214219259320278,-0.0109916331158126,0.0256679298393133
10.38,2,2.24321997270212,-0.207611078189042,-0.0134577404514641,0.0237138196040759
10.4,2,2.24367833182739,-0.201337073150617,-0.0134577404514641,0.0217614515103864
10.42,2,2.24409768129017,-0.195389575690771,-0.0158261760268169,0.0198715308155134
10.44,2,2.2444807517751,-0.189759456284385,-0.018132813666026,0.0180800914639698
10.46,2,2.24482825963527,-0.184439427123893,-0.018132813666026,0.0162598797191579
10.48,2,2.2451380826825,-0.179421824249319,-0.0203214815231337,0.0144175015010164
10.5,2,2.24541230046625,-0.174696608427854,-0.0224526169580909,0.0127112830995538
10.52,2,2.24565088824351,-0.170255615631082,-0.0224526169580909,0.0110651218226669
10.54,2,2.24585808239311,-0.166089132937232,-0.0244740235396287,0.00947854495043215
10.56,2,2.2460340851105,-0.162191102324389,-0.0264081960726489,0.00788563457829879
10.58,2,2.24618001733021,-0.158551081962843,-0.0264081960726489,0.0063729076948987
10.6,2,2.24629602018569,-0.15516160459675,-0.0282953981465617,0.00490863538146788
10.62,2,2.2463824243908,-0.152011837692771,-0.0300445071794495,0.00344228831242007
10.64,2,2.24644573619357,-0.149094956375223,-0.0300445071794495,0.00205129099422672
10.66,2,2.24648058304145,-0.146401384937239,-0.0317563927584621,0.000714874950217956
10.68,2,2.24649114835085,-0.143923891809209,-0.0333847694111629,-0.000551070567590854
10.7,2,2.24647069080265,-0.141652839023753,-0.0333847694111629,-0.00182356457983203
10.72,2,2.24643048050687,-0.139579937769511,-0.0349015715233827,-0.00305787526062957
10.74,2,2.24636106505281,-0.137697035349904,-0.0363910482772623,-0.00419145339180071
10.76,2,2.24627359091979,-0.135996156223877,-0.0363910482772623,-0.00528040618940063
10.78,2,2.246156997003,-0.134469785732258,-0.0377687087366521,-0.00638895283048451
10.8,2,2.2460214382066,-0.133108367716065,-0.0390964444056822,-0.0074260370764693
10.82,2,2.2458622616466,-0.131905315661581,-0.0390964444056822,-0.00843286081057443
10.84,2,2.24568851283532,-0.130851824739889,-0.0403545180106535,-0.00939508041348804
10.86,2,2.24549578185013,-0.1299415458993,-0.0415181796016239,-0.0103488673393516
10.88,2,2.24528292816266,-0.129164519891089,-0.0415181796016239,-0.0112196419518636
10.9,2,2.24505760302114,-0.128514509329292,-0.042661972614511,-0.0119988690592498
10.92,2,2.24481848699307,-0.127983699002613,-0.0436953524168861,-0.0127654400867875
10.94,2,2.24457117281063,-0.127566963737588,-0.0436953524168861,-0.0134919206335357
10.96,2,2.24429986866868,-0.127256702049818,-0.0447020062438791,-0.0141694891374797
10.98,2,2.24402098622565,-0.127046836845954,-0.0456678262304133,-0.014794583468647
11,2,2.24372203165492,-0.126930788079847,-0.0456678262304133,-0.0153930439669896
11.02,2,2.24341967136805,-0.126903317680239,-0.0465337566069706,-0.0159549517577464
11.04,2,2.24309591438123,-0.126959201619181,-0.0474150322968716,-0.0164138775121424
11.06,2,2.24276881263932,-0.12709274616071,-0.0474150322968716,-0.0168553177309059
11.08,2,2.24242219573893,-0.127299538224692,-0.0482150455411058,-0.017299485312538
11.1,2,2.24207472321379,-0.127574144193996,-0.0489844578569654,-0.0177067876405986
11.12,2,2.24171784593621,-0.12791350706702,-0.0489844578569654,-0.0180827685993986
11.14,2,2.24135703737061,-0.128311659083881,-0.0497433712776489,-0.0184354356441824
11.16,2,2.24098722015646,-0.128765134746694,-0.0504162009912017,-0.0187703650377027
11.18,2,2.24061247478021,-0.129267974091451,-0.0504162009912017,-0.0190602472700023
11.2,2,2.24024227432439,-0.129818090586982,-0.0511186459260332,-0.019337007743386
11.22,2,2.23986164179044,-0.130410655333587,-0.0517484180579927,-0.0196338459017666
11.24,2,2.23947895013708,-0.131042649367093,-0.0517484180579927,-0.0199217180186298
11.26,2,2.23907880154882,-0.131708450050612,-0.0523445476639623,-0.0202014477872825
11.28,2,2.23868539849443,-0.132404619554312,-0.0529535822108454,-0.0204431336071596
11.3,2,2.23827470141451,-0.133127572691868,-0.0529535822108454,-0.0206852975379326
11.32,2,2.23786846678874,-0.133873508497304,-0.0534647900347098,-0.0208968553407573
11.34,2,2.23744395683495,-0.134638926420009,-0.0540052069792985,-0.0210679433543529
11.36,2,2.23702429116428,-0.135419525496082,-0.0540052069792985,-0.0211834063886988
11.38,2,2.23659606150014,-0.136214336696156,-0.0545033310406177,-0.0212770044308399
11.4,2,2.23617467047867,-0.137019709685271,-0.0549628180025972,-0.0213383557710205
11.42,2,2.23574949761409,-0.137834813273406,-0.0549628180025972,-0.021393483452353
11.44,2,2.23532216270981,-0.138655202685642,-0.0554489107670871,-0.0214259310376258
11.46,2,2.23490241419771,-0.139480696749907,-0.0558698208463694,-0.0214386966697302
11.48,2,2.23448154871862,-0.140308240136017,-0.0558698208463694,-0.0214516425088497
11.5,2,2.23407044838681,-0.141137843186132,-0.0563328473664032,-0.0214479399194578
11.52,2,2.23364398574772,-0.141966529067169,-0.0567534014545164,-0.0214339992160415
11.54,2,2.23322925676777,-0.142793149977908,-0.0567534014545164,-0.0214246773295274
11.56,2,2.2328016663487,-0.143615838224361,-0.0571461743307318,-0.0214112207724594
11.58,2,2.23238773386857,-0.144433741034798,-0.0575956868273185,-0.0213500084873273
11.6,2,2.23195840517456,-0.145246141832566,-0.0575956868273185,-0.0213141001330891
11.62,2,2.23153891654783,-0.146050713403788,-0.0579561613909471,-0.0212674754657418
11.64,2,2.23110714855944,-0.146847190343707,-0.0583597716963748,-0.0212150912524005
11.66,2,2.23068706066453,-0.147633776558131,-0.0583597716963748,-0.0211361071487116
11.68,2,2.23026495127074,-0.148411495486758,-0.0587678529569382,-0.0210633956148031
11.7,2,2.22984747413939,-0.149177504401036,-0.0591150969656718,-0.0209829067588909
11.72,2,2.22943091317158,-0.149932389923993,-0.0591150969656718,-0.0208759763985197
11.74,2,2.22901914420227,-0.15067389682821,-0.0595204397670063,-0.0207539423415165
11.76,2,2.22862020538782,-0.151403914911445,-0.0598836719898012,-0.0206457719564208
11.78,2,2.22821568406274,-0.152120606952805,-0.0598836719898012,-0.0205608615172552
11.8,2,2.22781884031076,-0.152824561952151,-0.0602677594042783,-0.0204593121930383
11.82,2,2.2274115940449,-0.15351378273594,-0.0606466052542854,-0.0203479270925872
11.84,2,2.22702127048743,-0.154189177636432,-0.0606466052542854,-0.0202207346978581
11.86,2,2.22661724155743,-0.154850655262145,-0.0609956217962427,-0.0200861593826351
11.88,2,2.22622813085066,-0.155498260154787,-0.0614155583270213,-0.019928840035019
11.9,2,2.22582326615695,-0.156132009394352,-0.0614155583270213,-0.0197945906196712
11.92,2,2.22543323043406,-0.156751192225474,-0.0617616257044042,-0.019646308918745
11.94,2,2.22503667514418,-0.157357970438505,-0.0621465460890304,-0.0194993941225015
11.96,2,2.22465364112079,-0.15795115899781,-0.0621465460890304,-0.0193480517524698
11.98,2,2.22426787787267,-0.158532582193796,-0.0625702635649791,-0.0191886465516836
12,2,2.22388732108362,-0.159100100599701,-0.0629176559915768,-0.0190263471588618
12.02,2,2.22351803587764,-0.15965651871661,-0.0629176559915768,-0.0188628827047767
12.04,2,2.22314964599831,-0.160200583657749,-0.0633496681560109,-0.0187084046780483
12.06,2,2.22279460124591,-0.160734717977666,-0.0637546809501698,-0.018563009675236
12.08,2,2.22242551843697,-0.161257282166102,-0.0637546809501698,-0.0184183692623872
12.1,2,2.2220756931945,-0.161769732179508,-0.0641488834835382,-0.0182817721827781
12.12,2,2.22171113463985,-0.162272041655276,-0.0645864827153234,-0.0181492060728246
12.14,2,2.22136530415321,-0.162765011539469,-0.0645864827153234,-0.0180048645049622
12.16,2,2.22100171061223,-0.163249305455087,-0.0649820091051358,-0.0179074942835988
12.18,2,2.220653342587,-0.163723715724082,-0.0654369226415961,-0.0177722864083764
12.2,2,2.22029155243189,-0.16418998312759,-0.0654369226415961,-0.017664545309768
12.22,2,2.21994350560946,-0.164646981458489,-0.0658462228446822,-0.0175500574321326
12.24,2,2.2195923322728,-0.165096994191054,-0.066263989337689,-0.0174385280172059
12.26,2,2.21924603545845,-0.165537575927163,-0.066263989337689,-0.0173131519647082
12.28,2,2.21890377731288,-0.165970997158867,-0.0667335946997276,-0.0171768997207374
12.3,2,2.21856534387817,-0.166395511655603,-0.0671249123843745,-0.0170460373160144
12.32,2,2.21824090548606,-0.166814099011553,-0.0671249123843745,-0.0169210364587115
12.34,2,2.21790887560545,-0.167225208017407,-0.0675938919133628,-0.0168079859728804
12.36,2,2.21758938960963,-0.167630454090023,-0.0680477411999628,-0.016701167524628
12.38,2,2.21725668435324,-0.168028621377044,-0.0680477411999628,-0.0165948130224023
12.4,2,2.21694322605191,-0.168421256719276,-0.0684683317428589,-0.0165047120562295
12.42,2,2.21661177016243,-0.168808308521745,-0.0689523033181933,-0.0164185589224183
12.44,2,2.21629694024981,-0.169189677453413,-0.0689523033181933,-0.0163363045757562
12.46,2,2.21596327567761,-0.169565512508713,-0.0693798933717235,-0.0162582805362205
12.48,2,2.2156461148684,-0.169935064366281,-0.0698565019785434,-0.0161459171082317
12.5,2,2.21531858529078,-0.1703006093548,-0.0698565019785434,-0.0160293580669569
12.52,2,2.21500579048686,-0.170660833487767,-0.0703184050834326,-0.0159337769257791
12.54,2,2.2146872358598,-0.171017712558106,-0.0707575342494852,-0.0158575927263297
12.56,2,2.21437470699987,-0.171368735067971,-0.0707575342494852,-0.0157535450990837
12.58,2,2.21407116785538,-0.171716667195757,-0.0712684593943916,-0.0156494953131357
12.6,2,2.21376590533006,-0.172059624211603,-0.0717008443004867,-0.0155834781797032
12.62,2,2.21347291904877,-0.172399752656836,-0.0717008443004867,-0.0154986578462116
12.64,2,2.21316568729474,-0.172734799597661,-0.0721797263318453,-0.0153824938207767
12.66,2,2.21287858084946,-0.17306681933146,-0.0726806873502295,-0.0152800841507133
12.68,2,2.21257311780926,-0.173395507510693,-0.0726806873502295,-0.015188784100044
12.7,2,2.21228774239928,-0.173721658383935,-0.07312106398865,-0.0150991107789941
12.72,2,2.2119801179178,-0.174045359360898,-0.0736332328351655,-0.0149705734109954
12.74,2,2.21169254577756,-0.174366209040306,-0.0736332328351655,-0.0148527928215459
12.76,2,2.21138853108444,-0.174686298805701,-0.0741091428624629,-0.0147518923030928
12.78,2,2.21110022578797,-0.175004564381908,-0.0746034710051429,-0.0146473879508396
12.8,2,2.21080637490273,-0.175323687681921,-0.0746034710051429,-0.0145503846669159
12.82,2,2.21051918258829,-0.175641205485436,-0.0751146384051163,-0.0144767239785268
12.84,2,2.21023406339763,-0.175959561610144,-0.0755855195540504,-0.0144127448149101
12.86,2,2.20994992705123,-0.176276029851499,-0.0755855195540504,-0.0143151448721841
12.88,2,2.20967989108021,-0.176593590516685,-0.0761293584667651,-0.0142049365837418
12.9,2,2.20940064300307,-0.176910376221264,-0.0766061166859063,-0.0141195915662711
12.92,2,2.20913840098647,-0.177228408712526,-0.0766061166859063,-0.0140429888907491
12.94,2,2.20885606405382,-0.177546140383403,-0.0771086991476658,-0.0140147098962841
12.96,2,2.20859451726899,-0.177864407485278,-0.0776552465788518,-0.0139856270565278
12.98,2,2.20830929298596,-0.178182455987508,-0.0776552465788518,-0.0139677225993757
13,2,2.20804289250546,-0.178499421518561,-0.0781100777195579,-0.0139524529711799
13.02,2,2.20775329051181,-0.178815310604955,-0.0786353077205409,-0.0139205913043082
13.04,2,2.20748280034592,-0.179128782942001,-0.0786353077205409,-0.0138721208090456
13.06,2,2.20719736027655,-0.179441812192434,-0.0791380115221729,-0.0138272631088641
13.08,2,2.20692699899664,-0.179752252534382,-0.0796198148153743,-0.0137643674880391
13.1,2,2.20665012369007,-0.180062250643011,-0.0796198148153743,-0.0137020315687195
13.12,2,2.20637919235303,-0.180368848539027,-0.0801394339696553,-0.0136477422827318
13.14,2,2.20611631092883,-0.180674801763321,-0.0806138205880667,-0.013613420520095
13.16,2,2.20585028209277,-0.180977460739501,-0.0806138205880667,-0.0135760664240188
13.18,2,2.20559977459173,-0.181279110172483,-0.0811498795166067,-0.013519215729982
13.2,2,2.20533178832662,-0.181577184787743,-0.0816312211935163,-0.0134715755347942
13.22,2,2.20508423219128,-0.181873301334756,-0.0816312211935163,-0.013423902712657
13.24,2,2.20481454531457,-0.182166367364659,-0.0821138502289697,-0.0133612638200412
13.26,2,2.20456816940188,-0.182457086753436,-0.0826633182885335,-0.0132912278222276
13.28,2,2.20429551689073,-0.182745303597896,-0.0826633182885335,-0.0132258413253183
13.3,2,2.20404491531211,-0.18303032583499,-0.083115311614798,-0.0131822478387318
13.32,2,2.20377327804853,-0.183313419093767,-0.0836376133231072,-0.0131376232976836
13.34,2,2.20351896404437,-0.183592947382749,-0.0836376133231072,-0.0130782281387944
13.36,2,2.20325371986002,-0.183871107690298,-0.0841602786727588,-0.0130117247490821
13.38,2,2.2029986064123,-0.184145223993333,-0.0846270757611419,-0.0129548310037417
13.4,2,2.20274421885396,-0.184417820824379,-0.0846270757611419,-0.0128746264649169
13.42,2,2.202491440312,-0.184686234173182,-0.0851581674030122,-0.0127811536075206
13.44,2,2.20225258652506,-0.18495371218248,-0.0856484004982727,-0.0126950167179589
13.46,2,2.20200497935348,-0.185218082821626,-0.0856484004982727,-0.0126178490044429
13.48,2,2.20177422714978,-0.185481475688472,-0.0861750935192199,-0.0125458366296936
13.5,2,2.20152119539659,-0.185742179118084,-0.0866831478999028,-0.0124842329319846
13.52,2,2.20129296461765,-0.186001557063765,-0.0866831478999028,-0.0124349641179355
13.54,2,2.2010379301731,-0.186259020122276,-0.0871716293999344,-0.0124040229965124
13.56,2,2.20080631534521,-0.186514257360237,-0.0877288259793838,-0.0123373741978145
13.58,2,2.20054781036517,-0.186767733622109,-0.0877288259793838,-0.0122629745950193
13.6,2,2.20031203680206,-0.187018375840221,-0.0881964517300918,-0.0122338676804298
13.62,2,2.20005630131213,-0.187268129434052,-0.0887132135627594,-0.012218591728995
13.64,2,2.19981727600425,-0.187514535428165,-0.0887132135627594,-0.0122026301467057
13.66,2,2.19956905641367,-0.187759651944014,-0.0892561477190578,-0.0121874883773931
13.68,2,2.19932602690341,-0.18799976400534,-0.0897100114360074,-0.0121734234220537
13.7,2,2.19908974213099,-0.188237523044355,-0.0897100114360074,-0.0121580741381164
13.72,2,2.19884960438885,-0.188469947244928,-0.0902414315860263,-0.0121219971917361
13.74,2,2.19862910437119,-0.188699792284406,-0.090739403922684,-0.0120544997003466
13.76,2,2.19838647137639,-0.188924411330338,-0.090739403922684,-0.0120068588287257
13.78,2,2.19816770508479,-0.189145689450432,-0.091230293845163,-0.0119301497383952
13.8,2,2.19792452329639,-0.189362760064383,-0.0917471497978403,-0.0118860297790931
13.82,2,2.19770843908611,-0.189576558402602,-0.0917471497978403,-0.0118468346865009
13.84,2,2.19746032785354,-0.189786780531889,-0.0922253902466731,-0.0118063246584908
13.86,2,2.19723843270353,-0.189992499984932,-0.0927684383332504,-0.0117344700493409
13.88,2,2.19699350007293,-0.190195443364533,-0.0927684383332504,-0.0116603756563488
13.9,2,2.19676930546679,-0.190394474584171,-0.0932474518668265,-0.0116046757506514
13.92,2,2.19653040724866,-0.190592193510853,-0.093750563306076,-0.0115654020309735
13.94,2,2.19630326670787,-0.190785482213816,-0.093750563306076,-0.0115112218814511
13.96,2,2.19607596493267,-0.190977183790033,-0.0943030376502257,-0.0114579026121755
13.98,2,2.19585064989007,-0.191164511419776,-0.0947631092472525,-0.0114231853674759
14,2,2.19563880006349,-0.191350606008906,-0.0947631092472525,-0.0113892070497702
14.02,2,2.19541665811667,-0.191532622488773,-0.0953041936777903,-0.0113563309583504
14.04,2,2.1952120208148,-0.19171261343538,-0.0958238447201725,-0.0113080591594351
14.06,2,2.19498303202359,-0.191888632647035,-0.0958238447201725,-0.0112662599394121
14.08,2,2.19478289108527,-0.192062238948989,-0.0963083459584816,-0.0112451030302827
14.1,2,2.19455275694865,-0.192232909769849,-0.096845631185966,-0.0112245622949939
14.12,2,2.19434718098212,-0.192400336715881,-0.096845631185966,-0.0111981000599093
14.14,2,2.19410991525289,-0.192564417598441,-0.0973280075769375,-0.0111681718380708
14.16,2,2.19389955051651,-0.192723917214224,-0.0978623942302057,-0.0110750527116673
14.18,2,2.19366652776583,-0.192881485704627,-0.0978623942302057,-0.0110427026018204
14.2,2,2.19345159925005,-0.193035067259408,-0.0983579189452468,-0.011051564316014
14.22,2,2.19322401355789,-0.193186397046127,-0.0988396814256368,-0.0110710034703804
14.24,2,2.19300295056747,-0.193331602515928,-0.0988396814256368,-0.0110481314129708
14.26,2,2.19278797354456,-0.193473724796685,-0.0993846224833693,-0.0110035188898563
14.28,2,2.19257034977678,-0.193610080362974,-0.0998344339045427,-0.0109719661285049
14.3,2,2.19237003755837,-0.193743410092188,-0.0998344339045427,-0.0109274823655744
14.32,2,2.19214702747106,-0.193870878404418,-0.100346360219581,-0.010882322442113
14.34,2,2.19195067193197,-0.193994809733393,-0.100867991648544,-0.0108274999603884
14.36,2,2.19172820032315,-0.194114205774849,-0.100867991648544,-0.0107846068178543
14.38,2,2.1915355695535,-0.194230557731752,-0.101332672327078,-0.0107431323703333
14.4,2,2.19130564276719,-0.194343401173891,-0.101859453909631,-0.0107049021246898
14.42,2,2.19110558628262,-0.194451851625443,-0.101859453909631,-0.0106573288936424
14.44,2,2.19087837198739,-0.194557539269085,-0.102344803990381,-0.010652135214065
14.46,2,2.1906773256838,-0.194659368348083,-0.102864744555491,-0.0106322157427154
14.48,2,2.19045431030222,-0.19475982939844,-0.102864744555491,-0.0106132377937375
14.5,2,2.19024331320209,-0.194855021045173,-0.103363399361033,-0.0105996639468755
14.52,2,2.190029651775,-0.19494775963863,-0.103833883896357,-0.0105951985686279
14.54,2,2.18982004060513,-0.195034928485083,-0.103833883896357,-0.0105794585338085
14.56,2,2.18962436411075,-0.195120146963701,-0.104383828982583,-0.0105336207154401
14.58,2,2.18941332780376,-0.195199984208567,-0.104837566271851,-0.0105052376933861
14.6,2,2.18922377397245,-0.195276930149114,-0.104837566271851,-0.0105085533014536
14.62,2,2.18900818559676,-0.195348818852572,-0.105332010883125,-0.0105144220046869
14.64,2,2.18882523961095,-0.195417324654422,-0.105869914643755,-0.010498887529752
14.66,2,2.18860454309427,-0.195481658264728,-0.105869914643755,-0.0104894640200572
14.68,2,2.18841409230814,-0.195541444211029,-0.106310621198693,-0.0104819577505908
14.7,2,2.18819011267865,-0.195596983024975,-0.106826873593831,-0.0104621963007012
14.72,2,2.18799693735916,-0.195647314665888,-0.106826873593831,-0.010426821286205
14.74,2,2.18777794342437,-0.19569522960861,-0.107324184746463,-0.0103794297873829
14.76,2,2.18757832006158,-0.195738515000906,-0.107807774298856,-0.0103144512101253
14.78,2,2.18736596141203,-0.195779868677868,-0.107807774298856,-0.0102354568800475
14.8,2,2.18716418613175,-0.195816577274253,-0.108313502107364,-0.0101468034469945
14.82,2,2.1869729724386,-0.195853168429438,-0.108798399959503,-0.0100837153797124
14.84,2,2.18677689624245,-0.195887393005879,-0.108798399959503,-0.010024933558535
14.86,2,2.18659605465739,-0.195921964886846,-0.109349695032152,-0.00996788579004658
14.88,2,2.18639212152737,-0.19595411336636,-0.109824021720902,-0.00995582952321509
14.9,2,2.18621906525025,-0.195986368991231,-0.109824021720902,-0.00994147792930218
14.92,2,2.18601600800295,-0.196017646186456,-0.110326029012365,-0.00997576959061471
14.94,2,2.18583886035027,-0.196048511911844,-0.110880369725577,-0.00999802970298002
14.96,2,2.18562086805737,-0.19607741136971,-0.110880369725577,-0.0100205391808538
14.98,2,2.18543715417231,-0.196103385360711,-0.111317919923595,-0.0100316999900426
15,2,2.18522144722819,-0.196127774684875,-0.111837387929585,-0.0100355085532334
15.02,2,2.18503273447055,-0.196149390900652,-0.111837387929585,-0.0100183235291258
15.04,2,2.18481795777628,-0.19617023790192,-0.112351308150153,-0.0100196764226089
15.06,2,2.18461900530815,-0.196186711245525,-0.112805369801891,-0.0100228487070341
15.08,2,2.18441565686253,-0.196201934993003,-0.112805369801891,-0.00999815078438678
15.1,2,2.18422134456809,-0.196213269378695,-0.113317176480922,-0.00994208643780175
15.12,2,2.18403735863787,-0.196224802596251,-0.113797012121053,-0.00990663931175641
15.14,2,2.18383567124343,-0.196232716489161,-0.113797012121053,-0.00987944368724408
15.16,2,2.18365921466082,-0.196239915878409,-0.114310495213171,-0.00981697457512296
15.18,2,2.18346096206772,-0.19624493068345,-0.114794552771365,-0.00976589844223725
15.2,2,2.18329745404491,-0.196251041035899,-0.114794552771365,-0.00970874309434718
15.22,2,2.18308768463063,-0.196256978011391,-0.115284276703587,-0.00966533009852935
15.24,2,2.18291411572368,-0.196262657678136,-0.115832262233841,-0.00955717187859939
15.26,2,2.18270673246376,-0.196269391598486,-0.115832262233841,-0.00951913221316002
15.28,2,2.18253781021414,-0.196277434104333,-0.116292009414078,-0.00948485015597072
15.3,2,2.1823322586765,-0.196289375816798,-0.116825570990554,-0.00946749092711853
15.32,2,2.1821468824164,-0.196301748385108,-0.116825570990554,-0.00943809750612978
15.34,2,2.18194748783955,-0.196317419979559,-0.117363677483327,-0.00944422883838773
15.36,2,2.1817622294453,-0.196333325783391,-0.117831127474067,-0.00948033641258579
15.38,2,2.18158223766761,-0.196353254260366,-0.117831127474067,-0.00952460390046033
15.4,2,2.18139104341859,-0.196372777661277,-0.118369711962687,-0.00957054118175062
15.42,2,2.18121598745986,-0.196393979885527,-0.118858962185421,-0.00963390735780819
15.44,2,2.18101745062141,-0.19641313648281,-0.118858962185421,-0.00969319864149456
15.46,2,2.18085492131478,-0.19643249031566,-0.119353942612924,-0.00973303183411011
15.48,2,2.18065275188922,-0.196450320940458,-0.119848992001158,-0.00979182303423233
15.5,2,2.18048079404839,-0.196466598416674,-0.119848992001158,-0.00980056528703385
15.52,2,2.1802659235336,-0.196479964516362,-0.12030371549992,-0.00983689781270677
15.54,2,2.1800926999314,-0.196489780950086,-0.120828250780382,-0.0097916892313333
15.56,2,2.17988603569479,-0.196498621198414,-0.120828250780382,-0.00977094240201168
15.58,2,2.17970405478965,-0.196504804657757,-0.121276710617996,-0.00975897099776448
15.6,2,2.17949158128911,-0.196509790946491,-0.121747355903386,-0.00973252513948042
15.62,2,2.17930037538167,-0.196510558676845,-0.121747355903386,-0.00969955328374711
15.64,2,2.17910908852748,-0.19651133225001,-0.122268921729067,-0.0096760235761847
15.66,2,2.17892180233247,-0.196509468429205,-0.12270449767122,-0.00966203218413173
15.68,2,2.17873793346418,-0.196507528288586,-0.12270449767122,-0.00964255231699241
15.7,2,2.17853894718669,-0.196501618686933,-0.123200527015198,-0.00961363357814354
15.72,2,2.17837177594306,-0.196495268139682,-0.123684091443569,-0.00960528000929381
15.74,2,2.17818004270673,-0.196486848289549,-0.123684091443569,-0.00962604630701148
15.76,2,2.17801588198898,-0.19647834602337,-0.124155797360027,-0.00963714332935304
15.78,2,2.17780414579391,-0.196467328028451,-0.124634237794369,-0.00962166396185322
15.8,2,2.177633962179,-0.196453901222606,-0.124634237794369,-0.00960016528995739
15.82,2,2.17742665789855,-0.196438885493909,-0.125082898567233,-0.00958630641965353
15.84,2,2.17725848713882,-0.196422542046937,-0.125606715490935,-0.00954907519051196
15.86,2,2.17704822668002,-0.196406462008467,-0.125606715490935,-0.00950504256178396
15.88,2,2.17686268945506,-0.196387710409966,-0.126047513616022,-0.00945940333440006
15.9,2,2.17666071459797,-0.196369596833399,-0.126509053956158,-0.00943229886986002
15.92,2,2.17648382750431,-0.196350188068532,-0.126509053956158,-0.00937701789227124
15.94,2,2.17630340095249,-0.196333826087201,-0.127055281459901,-0.00930741145215461
15.96,2,2.17611184106942,-0.196316260654452,-0.127478649555546,-0.0092597008430002
15.98,2,2.17594010529739,-0.196300966136947,-0.127478649555546,-0.00921976061753107
16,2,2.17575676012092,-0.196285755719166,-0.127982912831209,-0.00919745570184413
16.02,2,2.1756075435429,-0.196274612190232,-0.128509389222452,-0.00918900612601386
16.04,2,2.17540716243262,-0.196264846742074,-0.128509389222452,-0.00921178838719669
16.06,2,2.17524459465603,-0.196256610123656,-0.128954886774163,-0.00923806732969294
16.08,2,2.17504119726858,-0.19624898838551,-0.129452262135712,-0.00925632850984419
16.1,2,2.17488635035054,-0.196242605727462,-0.129452262135712,-0.00927483991721272
16.12,2,2.17468260377268,-0.196238777397269,-0.129934107249468,-0.00934495690735359
16.14,2,2.17450673449909,-0.196234021040683,-0.130426225907543,-0.00938247549381986
16.16,2,2.17429682611017,-0.19622964983008,-0.130426225907543,-0.00941559172828048
16.18,2,2.17411619879571,-0.196222817009462,-0.130871611751267,-0.00944106600576117
16.2,2,2.17392954944307,-0.196217575489949,-0.1313320995196,-0.00946917616326744
16.22,2,2.17374090528292,-0.196209570002407,-0.1313320995196,-0.00946726447215632
16.24,2,2.17355652118392,-0.196201262899304,-0.131840283181002,-0.00945517033283835
16.26,2,2.17335990297377,-0.19618904664376,-0.13223936498321,-0.00944935542561606
16.28,2,2.1732040133832,-0.196176951382823,-0.13223936498321,-0.00942918101640947
16.3,2,2.17301156865012,-0.196163188116407,-0.132723574547054,-0.00941164796831856
16.32,2,2.1728474498685,-0.19614918048076,-0.133217712834702,-0.00938450794630891
16.34,2,2.17263730575923,-0.196132840343271,-0.133217712834702,-0.00939717801489317
16.36,2,2.17247826690357,-0.196114844484542,-0.133620535518879,-0.00936075714785906
16.38,2,2.17227709681888,-0.196096912119603,-0.134115801366137,-0.00933475217926189
16.4,2,2.17211002755161,-0.196078278018197,-0.134115801366137,-0.0093093557340628
16.42,2,2.17189898378931,-0.19605961474911,-0.134572751092122,-0.0092994500694476
16.44,2,2.17171812595673,-0.19603849092896,-0.135024221554344,-0.00929472638266647
16.46,2,2.1715252123678,-0.196018837069209,-0.135024221554344,-0.00929697708879334
16.48,2,2.17134913357146,-0.195998110061804,-0.135495735464969,-0.00932279812290846
16.5,2,2.17116142767009,-0.195978537224063,-0.13593120710286,-0.00935305415099096
16.52,2,2.1709664542548,-0.195955302080601,-0.13593120710286,-0.00935141139590859
16.54,2,2.17079685677578,-0.195932153668866,-0.136422083301083,-0.00933931924909762
16.56,2,2.17061757582552,-0.195907174053421,-0.136847580820688,-0.0093598237622438
16.58,2,2.17046013688741,-0.195883079790845,-0.136847580820688,-0.00938169516097268
16.6,2,2.17025259083909,-0.195856235151754,-0.137294015158259,-0.00940817179329987
16.62,2,2.17009017886381,-0.195827366755172,-0.137775862926659,-0.00941210735745875
16.64,2,2.16988843426104,-0.195796235459039,-0.137775862926659,-0.00943278491103597
16.66,2,2.1697316485952,-0.19576389844655,-0.138177024639372,-0.0094156695236033
16.68,2,2.16951820197924,-0.195730397885787,-0.13863912997982,-0.00941332209202929
16.7,2,2.16934131587646,-0.195693043718206,-0.13863912997982,-0.00941952001800629
16.72,2,2.16912950548014,-0.195654166914533,-0.139078857973721,-0.00943035146410567
16.74,2,2.16895722144416,-0.19561226781204,-0.139508588701455,-0.00942638549211131
16.76,2,2.16876328766317,-0.195570754296887,-0.139508588701455,-0.00940157195531746
16.78,2,2.16856955552336,-0.195524798006982,-0.139949421783466,-0.00935486371900145
16.8,2,2.16838309478427,-0.195478013393686,-0.140358292306568,-0.00930735440976587
16.82,2,2.16819703869572,-0.195428065477293,-0.140358292306568,-0.00927084617317168
16.84,2,2.16804474196004,-0.195379795322619,-0.140846628651576,-0.00923681404306216
16.86,2,2.16784526918803,-0.195329978276447,-0.14125774606822,-0.00921399230711928
16.88,2,2.16768214614359,-0.195280269135315,-0.14125774606822,-0.00920872057280671
16.9,2,2.16747897635756,-0.195229062268993,-0.141678372667221,-0.00923246561847095
16.92,2,2.16733080142402,-0.195178292132954,-0.142183109177132,-0.00923609442381755
16.94,2,2.16712441811983,-0.195128310855755,-0.142183109177132,-0.00923776443858274
16.96,2,2.1669564849174,-0.195077158080559,-0.142565996630881,-0.00924817623600807
16.98,2,2.16674326935453,-0.195025595935826,-0.143008358378514,-0.00926831740314992
17,2,2.16657143500717,-0.194972054715057,-0.143008358378514,-0.0092766517225211
17.02,2,2.16637835609669,-0.194920643861429,-0.143481901848815,-0.0093164819989317
17.04,2,2.16619472415061,-0.19486700824191,-0.143876303577403,-0.0093368159790571
17.06,2,2.16599877166244,-0.194813214057405,-0.143876303577403,-0.00934736647933422
17.08,2,2.16580475207726,-0.194755362155611,-0.144304307474427,-0.0093416500191033
17.1,2,2.16564210510208,-0.194698349760061,-0.144732093404518,-0.00935994849888384
17.12,2,2.16545322219569,-0.194639170215102,-0.144732093404518,-0.00942290937308501
17.14,2,2.16528368415405,-0.194579101320439,-0.145173320655138,-0.00944551303071344
17.16,2,2.1650713744551,-0.194514745210696,-0.145555431762451,-0.0094827438988464
17.18,2,2.16491526515285,-0.194448006002375,-0.145555431762451,-0.00949762760143794
17.2,2,2.16470967120268,-0.194379079654735,-0.145961592155674,-0.00949875594912317
17.22,2,2.16454356175701,-0.194307808000008,-0.146424310962453,-0.00946599673621343
17.24,2,2.16432257126806,-0.194233899402614,-0.146424310962453,-0.00948103128697206
17.26,2,2.16414748226518,-0.194155687111128,-0.146766260906169,-0.00946884095960806
17.28,2,2.16394096975919,-0.194076838357364,-0.147192660526756,-0.00948879251000498
17.3,2,2.16376531847163,-0.193995286075193,-0.147192660526756,-0.00948888123804084
17.32,2,2.16356222553117,-0.193913235221356,-0.147646262511473,-0.00948466991613809
17.34,2,2.16336640667866,-0.193826328799313,-0.147991534352385,-0.00945400894645563
17.36,2,2.16318610205329,-0.19373913854048,-0.147991534352385,-0.00940952262090785
17.38,2,2.1630048278029,-0.193649795391762,-0.148432033548989,-0.00937052475030941
17.4,2,2.16284372102771,-0.193562045336594,-0.148859306196249,-0.00932654461363011
17.42,2,2.16263838444596,-0.193472159444712,-0.148859306196249,-0.00929958257060027
17.44,2,2.16248068525197,-0.193382722729485,-0.149259196934423,-0.00925374354687006
17.46,2,2.16228794229601,-0.193293508596477,-0.149687352620454,-0.00924845872620722
17.48,2,2.16214048344193,-0.193206868125003,-0.149687352620454,-0.00924606273620654
17.5,2,2.16192599122964,-0.193121421689599,-0.150099893779888,-0.00924271660778401
17.52,2,2.1617603591871,-0.193035526391658,-0.150549363140826,-0.00923001177386924
17.54,2,2.16155319294471,-0.192951215043806,-0.150549363140826,-0.00923582313106098
17.56,2,2.16139181008485,-0.192868079965139,-0.150934696817724,-0.00924243090224892
17.58,2,2.16118961299648,-0.1927886095293,-0.151354808234952,-0.00925811177431016
17.6,2,2.1610024513722,-0.19270795124664,-0.151354808234952,-0.00922546682701899
17.62,2,2.16080924195395,-0.192629710822236,-0.151803268782192,-0.00921062846018785
17.64,2,2.16062963698901,-0.192551451907832,-0.152171463423668,-0.00921468345043765
17.66,2,2.16046705928714,-0.192477756558513,-0.152171463423668,-0.009227592228321
17.68,2,2.16027078719108,-0.192404099692813,-0.152613381268283,-0.00925906906658978
17.7,2,2.16010314601871,-0.192332482171884,-0.153028004208407,-0.00927844822599066
17.72,2,2.15990259704401,-0.192260281047521,-0.153028004208407,-0.00930187684190925
17.74,2,2.15975774480914,-0.192190641097638,-0.153421372116336,-0.00933700049729693
17.76,2,2.15954722009331,-0.192122291621746,-0.15384061938664,-0.00937245532159451
17.78,2,2.15938135540621,-0.192054026745244,-0.15384061938664,-0.00936937594838503
17.8,2,2.15916248580422,-0.191985634644773,-0.154217032796238,-0.00940215651564191
17.82,2,2.15900166631448,-0.191916780471712,-0.154657581834351,-0.00936071984039542
17.84,2,2.15879773614851,-0.191851138793921,-0.154657581834351,-0.00937626314322335
17.86,2,2.15861704184214,-0.191785039642024,-0.155037350315933,-0.00940105829180722
17.88,2,2.15840717093991,-0.19172023698737,-0.155409326934031,-0.00942637024138869
17.9,2,2.15821935823907,-0.191653178093265,-0.155409326934031,-0.00941676196253305
17.92,2,2.15804724398578,-0.191589294883048,-0.155864796935532,-0.00940687034264452
17.94,2,2.15785641665321,-0.191524922204233,-0.156212179464492,-0.00941773686806823
17.96,2,2.15767984914572,-0.191462126522776,-0.156212179464492,-0.00941573362906605
17.98,2,2.15747219939237,-0.191397213268668,-0.15660380303868,-0.00940838222941884
18,2,2.15732226486578,-0.191333949058174,-0.157031798680992,-0.00941547054700459
18.02,2,2.1571199827289,-0.191271397625192,-0.157031798680992,-0.00943043705845953
18.04,2,2.15695744887566,-0.191210054724969,-0.157392588143378,-0.00942121874781296
18.06,2,2.15673370885904,-0.19114830224833,-0.157778427596634,-0.00942397722014194
18.08,2,2.15657145161881,-0.191085834900054,-0.157778427596634,-0.00941083797201892
18.1,2,2.15636393043448,-0.191025515233424,-0.158167833817003,-0.00941449410726169
18.12,2,2.15619585541852,-0.190965843991652,-0.158584790410481,-0.00943160502054705
18.14,2,2.15598098376116,-0.190908171382406,-0.158584790410481,-0.0094520915313036
18.16,2,2.15579052605967,-0.190848340736367,-0.158936648278801,-0.00947419170354533
18.18,2,2.15560028459279,-0.190790591388511,-0.159311842589337,-0.00949654173281802
18.2,2,2.15541968333244,-0.190732130263189,-0.159311842589337,-0.00947965189328939
18.22,2,2.15524285979974,-0.190676378798092,-0.159758398848657,-0.00944430607902776
18.24,2,2.15503661137951,-0.190618827725279,-0.160076053793598,-0.0094126451115227
18.26,2,2.1548764892546,-0.190563101112066,-0.160076053793598,-0.00938642156742575
18.28,2,2.1546865817783,-0.190508082831742,-0.160473958899028,-0.00938817538675787
18.3,2,2.15453776907958,-0.190456653466738,-0.160922330949278,-0.00938153265779846
18.32,2,2.15431776941638,-0.190406128633036,-0.160922330949278,-0.00938409856332286
18.34,2,2.15415641061175,-0.19035602457954,-0.161243472332518,-0.00938869740704018
18.36,2,2.15394888191988,-0.190307533323411,-0.161651234306791,-0.00938114742923481
18.38,2,2.15379587428667,-0.190261192873175,-0.161651234306791,-0.00938057297969401
18.4,2,2.15358138292333,-0.190218172712559,-0.162062723086488,-0.00939591172627205
18.42,2,2.15339677748553,-0.190174235505567,-0.162421732650058,-0.00935012872641414
18.44,2,2.15319342748297,-0.19013301564766,-0.162421732650058,-0.00933139048249545
18.46,2,2.15302044716035,-0.190092626776973,-0.162803390215686,-0.00933565572642074
18.48,2,2.15284254904232,-0.19005712287065,-0.163189208260265,-0.00937514488529165
18.5,2,2.15264291097377,-0.190021057591914,-0.163189208260265,-0.00942568305267122
18.52,2,2.15246550116182,-0.189986803176123,-0.163595034459538,-0.00944926671881582
18.54,2,2.15227028096611,-0.189951393366683,-0.163924588045817,-0.00946717935441061
18.56,2,2.15212280368358,-0.189918639569775,-0.163924588045817,-0.00948229160831215
18.58,2,2.15190925826687,-0.189885948864299,-0.164306216331045,-0.00948624839250692
18.6,2,2.15174317420245,-0.189853479239921,-0.164708872691767,-0.00944443789741178
18.62,2,2.15152328903493,-0.189820414996614,-0.164708872691767,-0.00941360815823206
18.64,2,2.15137206878317,-0.18978816473799,-0.165020758027109,-0.00938660650014055
18.66,2,2.15116094631284,-0.189758936681123,-0.165423520336968,-0.00939864880175211
18.68,2,2.15098724423191,-0.189729751706699,-0.165423520336968,-0.00938025943486243
18.7,2,2.15076490870788,-0.189702032678627,-0.165799574198203,-0.00939004233093543
18.72,2,2.15058707038635,-0.189673364934732,-0.166143084770651,-0.00939959079322322
18.74,2,2.15040342449354,-0.189648707791633,-0.166143084770651,-0.00940180416467241
18.76,2,2.15021420521952,-0.189623771053671,-0.166530036898075,-0.0093918087303797
18.78,2,2.15002405848084,-0.18960084871975,-0.16687251083185,-0.00938626454661034
18.8,2,2.14982125674325,-0.189576031279943,-0.16687251083185,-0.00938492512283201
18.82,2,2.14967403714239,-0.18955420095021,-0.167268786889953,-0.00938700205262269
18.84,2,2.14947445943011,-0.189533007490046,-0.167614674757296,-0.00944644068554321
18.86,2,2.1493079691027,-0.189513043332489,-0.167614674757296,-0.00949043134991573
18.88,2,2.14908138588833,-0.189491052953734,-0.16794481188951,-0.00955686194777475
18.9,2,2.1489260296919,-0.189467733691599,-0.168343462688848,-0.00961155293713327
18.92,2,2.14871088513851,-0.18944397375381,-0.168343462688848,-0.00966674661780329
18.94,2,2.1485425196269,-0.189418129363612,-0.168641124871306,-0.00970464370915133
18.96,2,2.14831233477611,-0.189390163014295,-0.168976152430654,-0.00974677931659573
18.98,2,2.14812480226707,-0.189356924360292,-0.168976152430654,-0.00972925454744762
19,2,2.14791937804084,-0.189322749629688,-0.169339136018898,-0.00976435049705927
19.02,2,2.14773736521312,-0.189284688203833,-0.169645683273775,-0.00974994947271187
19.04,2,2.14753896191135,-0.189245639714019,-0.169645683273775,-0.00971073602377364
19.06,2,2.14732910806911,-0.189200946098899,-0.169972733969023,-0.00967048762144357
19.08,2,2.14715595492226,-0.189155160744835,-0.170303880937732,-0.00961700888957551
19.1,2,2.14696684536938,-0.189106698464612,-0.170303880937732,-0.00958610604482575
19.12,2,2.14680937325369,-0.189059105256081,-0.170673940175643,-0.00955108035757486
19.14,2,2.14658425997417,-0.189008902468026,-0.170975961508576,-0.00955793917401405
19.16,2,2.14642428671642,-0.188957098653712,-0.170975961508576,-0.00949672246145783
19.18,2,2.14621503738845,-0.188904528252463,-0.1713027267876,-0.0095009025581235
19.2,2,2.14606488730517,-0.188852520781985,-0.171710776214906,-0.00943892663798726
19.22,2,2.14584068298289,-0.18880137443259,-0.171710776214906,-0.00939017151858104
19.24,2,2.14566654461896,-0.188748583100102,-0.171986167183422,-0.00932612421981462
19.26,2,2.14545603482286,-0.188697822728528,-0.172337260378402,-0.00930520098189145
19.28,2,2.14529296422768,-0.188648112603226,-0.172337260378402,-0.00930007961526956
19.3,2,2.14510011164327,-0.188602695825515,-0.172751542018966,-0.00933128637485046
19.32,2,2.14490370744966,-0.188556030059493,-0.173032857316112,-0.00935952390232482
19.34,2,2.14471805331173,-0.188511214030408,-0.173032857316112,-0.00940245914771053
19.36,2,2.14452935974398,-0.188465258383569,-0.173383944549706,-0.00944508174612744
19.38,2,2.14437760582977,-0.188422009758888,-0.173752098376171,-0.00945105976267865
19.4,2,2.14416475724434,-0.18837757959285,-0.173752098376171,-0.00948555943154314
19.42,2,2.14399829931368,-0.188333012245097,-0.174063750690307,-0.00948202404273928
19.44,2,2.14378231768813,-0.188286624833795,-0.174376519573701,-0.00950821481437618
19.46,2,2.1436356269777,-0.188240454502599,-0.174376519573701,-0.00947679006101798
19.48,2,2.14341570405339,-0.188194942242473,-0.174712735654685,-0.0094877325475695
19.5,2,2.14324560284842,-0.188148061774831,-0.175067834557443,-0.00942904851036238
19.52,2,2.14301901761435,-0.188100966542639,-0.175067834557443,-0.00941194114571725
19.54,2,2.14284944402242,-0.188052816067154,-0.175342323690579,-0.00936117138000591
19.56,2,2.142652659968,-0.18800824530854,-0.175690660141093,-0.00934036482307642
19.58,2,2.14246756434116,-0.187963340055107,-0.175690660141093,-0.00930956283344772
19.6,2,2.142263523291,-0.187920538395729,-0.176058138840131,-0.00929228926379145
19.62,2,2.1420690998905,-0.187876357287715,-0.176324491888732,-0.00930987086094703
19.64,2,2.14190995846572,-0.187836018001846,-0.176324491888732,-0.00933387669176115
19.66,2,2.14171439655124,-0.187795964796788,-0.176686653942499,-0.00934668234127611
19.68,2,2.14154216387347,-0.187757790991544,-0.177023770221578,-0.00934515353873052
19.7,2,2.14132267573703,-0.187718151605853,-0.177023770221578,-0.00934638244808307
19.72,2,2.14117977023353,-0.187680162573518,-0.177317486640899,-0.00936208551178106
19.74,2,2.14096751828608,-0.187643696365592,-0.177658220257431,-0.00945440412488725
19.76,2,2.14080434942224,-0.18760743080724,-0.177658220257431,-0.00948805159770306
19.78,2,2.14057016158739,-0.187570058011044,-0.177957493645618,-0.00958289570939181
19.8,2,2.14040052879244,-0.187529566771267,-0.178285294440784,-0.00963308925341264
19.82,2,2.14018597153537,-0.187489158256446,-0.178285294440784,-0.00966713390641898
19.84,2,2.140008869738,-0.187445851152317,-0.178568996787557,-0.00970040834165898
19.86,2,2.13979270656685,-0.187401483416352,-0.178848987637306,-0.00972378457680049
19.88,2,2.13959013791331,-0.187351312217744,-0.178848987637306,-0.00971093367631605
19.9,2,2.13940613830588,-0.187300281032144,-0.179187109828866,-0.00969114166307024
19.92,2,2.13921483268398,-0.187245716918581,-0.179442215894177,-0.00968219136506211
19.94,2,2.13904498577295,-0.187191014242076,-0.179442215894177,-0.0096547506627927
19.96,2,2.13882146606555,-0.187131948497738,-0.179741037674295,-0.00961181695903058
19.98,2,2.13866350720857,-0.187071593152388,-0.180065968332402,-0.00955133805289713
20,2,2.13845695188715,-0.187009866421342,-0.180065968332402,-0.00952639722763885
